{"learner":{"attributes":{"scikit_learn":"{\"_estimator_type\": \"classifier\"}"},"feature_names":["SMA_20","SMA_50","RSI","MACD","BB_upper","BB_middle","BB_lower","close"],"feature_types":["float","float","float","float","float","float","float","float"],"gradient_booster":{"model":{"gbtree_model_param":{"num_parallel_tree":"1","num_trees":"300"},"iteration_indptr":[0,3,6,9,12,15,18,21,24,27,30,33,36,39,42,45,48,51,54,57,60,63,66,69,72,75,78,81,84,87,90,93,96,99,102,105,108,111,114,117,120,123,126,129,132,135,138,141,144,147,150,153,156,159,162,165,168,171,174,177,180,183,186,189,192,195,198,201,204,207,210,213,216,219,222,225,228,231,234,237,240,243,246,249,252,255,258,261,264,267,270,273,276,279,282,285,288,291,294,297,300],"tree_info":[0,1,2,0,1,2,0,1,2,0,1,2,0,1,2,0,1,2,0,1,2,0,1,2,0,1,2,0,1,2,0,1,2,0,1,2,0,1,2,0,1,2,0,1,2,0,1,2,0,1,2,0,1,2,0,1,2,0,1,2,0,1,2,0,1,2,0,1,2,0,1,2,0,1,2,0,1,2,0,1,2,0,1,2,0,1,2,0,1,2,0,1,2,0,1,2,0,1,2,0,1,2,0,1,2,0,1,2,0,1,2,0,1,2,0,1,2,0,1,2,0,1,2,0,1,2,0,1,2,0,1,2,0,1,2,0,1,2,0,1,2,0,1,2,0,1,2,0,1,2,0,1,2,0,1,2,0,1,2,0,1,2,0,1,2,0,1,2,0,1,2,0,1,2,0,1,2,0,1,2,0,1,2,0,1,2,0,1,2,0,1,2,0,1,2,0,1,2,0,1,2,0,1,2,0,1,2,0,1,2,0,1,2,0,1,2,0,1,2,0,1,2,0,1,2,0,1,2,0,1,2,0,1,2,0,1,2,0,1,2,0,1,2,0,1,2,0,1,2,0,1,2,0,1,2,0,1,2,0,1,2,0,1,2,0,1,2,0,1,2,0,1,2,0,1,2,0,1,2,0,1,2,0,1,2,0,1,2,0,1,2,0,1,2,0,1,2,0,1,2],"trees":[{"base_weights":[-2.807984E-1,-3.0440873E-1,2.4545455E-1,-2.2731063E-1,-6.8354434E-1,-5.4863816E-1,-1.3851002E-1,-2.1600004E-1,-7.663455E-9,-3.092784E-1,-1.9704145E-1,1.2846343E-1,-3.2389385E-1,-4.588236E-1,1.2857142E-1,-1.894737E-1,2.4928363E-1,-4.8362726E-1,5.0847415E-2,-2.4324335E-2,-1.894737E-1,2.8536585E-1,4.542586E-2,-1.6097564E-1,4.864864E-2,-9.197082E-2,3.122449E-1],"categories":[],"categories_nodes":[],"categories_segments":[],"categories_sizes":[],"default_left":[0,0,0,0,0,0,0,0,0,0,0,0,0,0,0,0,0,0,0,0,0,0,0,0,0,0,0],"id":0,"left_children":[1,3,-1,5,7,9,11,-1,-1,13,-1,15,17,19,-1,-1,21,23,25,-1,-1,-1,-1,-1,-1,-1,-1],"loss_changes":[4.4381056E0,4.485799E0,0E0,3.7317233E0,6.562023E-1,5.361891E-1,5.2823205E0,0E0,0E0,1.385879E0,0E0,4.208098E0,3.7823877E0,5.651076E-1,0E0,0E0,2.51978E0,1.5956068E0,7.2777686E0,0E0,0E0,0E0,0E0,0E0,0E0,0E0,0E0],"parents":[2147483647,0,0,1,1,3,3,4,4,5,5,6,6,9,9,11,11,12,12,13,13,16,16,17,17,18,18],"right_children":[2,4,-1,6,8,10,12,-1,-1,14,-1,16,18,20,-1,-1,22,24,26,-1,-1,-1,-1,-1,-1,-1,-1],"split_conditions":[1.9026007E2,1.6900323E2,2.4545455E-1,1.4054544E2,1.8557379E2,1.3284125E2,4.822722E-1,-2.1600004E-1,-7.663455E-9,1.395851E2,-1.9704145E-1,3.685005E1,3.2845187E0,1.2836719E2,1.2857142E-1,-1.894737E-1,-3.871307E0,1.7135117E2,1.6001434E2,-2.4324335E-2,-1.894737E-1,2.8536585E-1,4.542586E-2,-1.6097564E-1,4.864864E-2,-9.197082E-2,3.122449E-1],"split_indices":[0,0,0,5,1,5,3,0,0,0,0,2,3,7,0,0,3,5,0,0,0,0,0,0,0,0,0],"split_type":[0,0,0,0,0,0,0,0,0,0,0,0,0,0,0,0,0,0,0,0,0,0,0,0,0,0,0],"sum_hessian":[1.6044443E2,1.5777777E2,2.6666665E0,1.3244444E2,2.5333332E1,2.7555553E1,1.04888885E2,2.3999998E1,1.3333333E0,9.777777E0,1.7777777E1,4.3111107E1,6.1777775E1,8.444444E0,1.3333333E0,5.333333E0,3.7777775E1,4.3111107E1,1.8666666E1,3.111111E0,5.333333E0,3.5555553E0,3.422222E1,3.9999996E1,3.111111E0,1.4222221E1,4.444444E0],"tree_param":{"num_deleted":"0","num_feature":"8","num_nodes":"27","size_leaf_vector":"1"}},{"base_weights":[3.8196832E-1,2.35443E-1,9.9638987E-1,-3.4285718E-1,2.8925616E-1,1.1034483E0,-1.4400001E-1,-1.9384618E-1,1.2244894E-1,9.438202E-1,2.289395E-1,8.4827584E-1,3.96E-1,2.1724138E-1,-1.5517244E-1,-7.663455E-9,1.0909091E0,1.0041837E-1,5.282392E-1,9.767442E-1,-3.600001E-2,3.7358493E-1,5.454545E-1,5.9999996E-1,4.9924314E-2,7.619047E-1,1.239669E-1,3.5753426E-1,5.9999996E-1,-7.663455E-9,2.5714284E-1,-1.2857145E-1,2.7169812E-1,1.07655495E-1,-2.7331904E-2,-1.2857145E-1,2.5932205E-1,1.9459459E-1,-2.9032271E-2,-2.4324335E-2,3.4054056E-1],"categories":[],"categories_nodes":[],"categories_segments":[],"categories_sizes":[],"default_left":[0,0,0,0,0,0,0,0,0,0,0,0,0,0,0,0,0,0,0,0,0,0,0,0,0,0,0,0,0,0,0,0,0,0,0,0,0,0,0,0,0],"id":1,"left_children":[1,3,5,7,9,11,-1,-1,13,15,17,19,-1,-1,-1,-1,21,23,25,27,-1,-1,29,31,33,35,37,-1,39,-1,-1,-1,-1,-1,-1,-1,-1,-1,-1,-1,-1],"loss_changes":[1.4299976E1,4.1966605E0,5.39439E0,1.7255886E0,4.561137E0,4.8275757E-1,0E0,0E0,2.4700916E0,1.3728294E0,4.259459E0,2.121315E0,0E0,0E0,0E0,0E0,4.116726E-2,1.9797088E0,3.0648623E0,4.461298E-1,0E0,0E0,6.233767E-1,2.6587603E0,3.2325375E0,2.93301E0,1.6198924E0,0E0,2.7243245E0,0E0,0E0,0E0,0E0,0E0,0E0,0E0,0E0,0E0,0E0,0E0,0E0],"parents":[2147483647,0,0,1,1,2,2,3,3,4,4,5,5,8,8,9,9,10,10,11,11,16,16,17,17,18,18,19,19,22,22,23,23,24,24,25,25,26,26,28,28],"right_children":[2,4,6,8,10,12,-1,-1,14,16,18,20,-1,-1,-1,-1,22,24,26,28,-1,-1,30,32,34,36,38,-1,40,-1,-1,-1,-1,-1,-1,-1,-1,-1,-1,-1,-1],"split_conditions":[1.6941635E2,-4.374565E0,1.9050412E2,1.39035E2,3.7347584E1,6.498053E1,-1.4400001E-1,-1.9384618E-1,1.4880594E2,3.2124126E1,6.2208973E1,3.2201684E0,3.96E-1,2.1724138E-1,-1.5517244E-1,-7.663455E-9,3.6034966E1,1.3078767E2,3.7962549E0,1.75246E2,-3.600001E-2,3.7358493E-1,3.6164055E1,1.3304968E2,4.5258633E1,1.3711429E2,1.4470659E2,3.5753426E-1,1.8560904E2,-7.663455E-9,2.5714284E-1,-1.2857145E-1,2.7169812E-1,1.07655495E-1,-2.7331904E-2,-1.2857145E-1,2.5932205E-1,1.9459459E-1,-2.9032271E-2,-2.4324335E-2,3.4054056E-1],"split_indices":[4,3,0,5,2,2,0,0,6,2,2,3,0,0,0,0,2,4,3,4,0,0,2,6,2,1,0,0,4,0,0,0,0,0,0,0,0,0,0,0,0],"split_type":[0,0,0,0,0,0,0,0,0,0,0,0,0,0,0,0,0,0,0,0,0,0,0,0,0,0,0,0,0,0,0,0,0,0,0,0,0,0,0,0,0],"sum_hessian":[1.6044443E2,1.3066666E2,2.9777777E1,1.0666666E1,1.1999999E2,2.7999998E1,1.7777777E0,6.222222E0,4.444444E0,8.888888E0,1.1111111E2,1.5111111E1,1.2888888E1,2.222222E0,2.222222E0,1.3333333E0,7.5555553E0,7.8666664E1,3.2444443E1,1.3333332E1,1.7777777E0,4.8888884E0,2.6666665E0,6.222222E0,7.244444E1,1.9999998E1,1.2444444E1,7.1111107E0,6.222222E0,1.3333333E0,1.3333333E0,1.3333333E0,4.8888884E0,2.2222221E1,5.0222218E1,1.3333333E0,1.8666666E1,3.111111E0,9.333333E0,3.111111E0,3.111111E0],"tree_param":{"num_deleted":"0","num_feature":"8","num_nodes":"41","size_leaf_vector":"1"}},{"base_weights":[-1.0117004E-1,1.14221685E-1,-4.376099E-1,-4.415159E-8,5.895954E-1,1.2857142E-1,-4.6319574E-1,3.1830236E-1,-3.3241004E-1,8.807339E-1,8.219174E-2,-3.169812E-1,-5.7807314E-1,9.1764706E-1,1.3953485E-1,-8.108112E-2,-5.6756765E-1,3.1034475E-2,1.0449438E0,-1.7027028E-1,5.9999996E-1,-6.1325973E-1,2.9032254E-1,-2.1381217E-1,-3.4883726E-1,3.8360658E-1,-3.2511625E-8,-4.83871E-1,4.009216E-1,-3.8461542E-1,3.8961035E-1,1.6216213E-1,-2.1210195E-1,7.2E-2,3.5753426E-1,3.1034482E-1,-3.600001E-2,-7.663455E-9,-6.568048E-1,7.384615E-1,-1.7027028E-1,-3.8872596E-8,-1.956522E-1,1.2857142E-1,-1.2857145E-1,7.2E-2,-1.9870132E-1,2.232E-1,-1.7821796E-2,1.2413793E-1,-1.7628868E-1,-1.5517244E-1,2.3684211E-1,1.7999999E-1,-1.2857145E-1,-9.729732E-2,-2.1063831E-1,3.5999998E-1,-6.206898E-2,1.9459459E-1,-1.7560977E-1],"categories":[],"categories_nodes":[],"categories_segments":[],"categories_sizes":[],"default_left":[0,0,0,0,0,0,0,0,0,0,0,0,0,0,0,0,0,0,0,0,0,0,0,0,0,0,0,0,0,0,0,0,0,0,0,0,0,0,0,0,0,0,0,0,0,0,0,0,0,0,0,0,0,0,0,0,0,0,0,0,0],"id":2,"left_children":[1,3,5,7,9,-1,11,13,15,17,19,21,23,25,27,29,31,-1,33,-1,35,37,39,-1,41,-1,43,45,47,49,51,53,-1,-1,-1,-1,-1,-1,55,57,-1,59,-1,-1,-1,-1,-1,-1,-1,-1,-1,-1,-1,-1,-1,-1,-1,-1,-1,-1,-1],"loss_changes":[1.1749275E1,5.3875675E0,1.5996428E0,8.676166E0,2.76721E0,0E0,8.562927E-1,4.360072E0,2.3246236E0,1.4377403E0,3.0695295E0,5.476013E0,7.83576E-1,3.129025E0,5.6437683E0,3.0866432E0,2.206232E0,0E0,8.8279533E-1,0E0,1.6882759E0,5.370555E-1,4.391818E0,0E0,1.5166835E0,0E0,8.5714287E-1,1.493892E0,3.852028E0,2.3502967E0,3.510736E0,1.3204634E0,0E0,0E0,0E0,0E0,0E0,0E0,5.5244446E-2,3.3994691E0,0E0,3.2907052E0,0E0,0E0,0E0,0E0,0E0,0E0,0E0,0E0,0E0,0E0,0E0,0E0,0E0,0E0,0E0,0E0,0E0,0E0,0E0],"parents":[2147483647,0,0,1,1,2,2,3,3,4,4,6,6,7,7,8,8,9,9,10,10,11,11,12,12,13,13,14,14,15,15,16,16,18,18,20,20,21,21,22,22,24,24,26,26,27,27,28,28,29,29,30,30,31,31,38,38,39,39,41,41],"right_children":[2,4,6,8,10,-1,12,14,16,18,20,22,24,26,28,30,32,-1,34,-1,36,38,40,-1,42,-1,44,46,48,50,52,54,-1,-1,-1,-1,-1,-1,56,58,-1,60,-1,-1,-1,-1,-1,-1,-1,-1,-1,-1,-1,-1,-1,-1,-1,-1,-1,-1,-1],"split_conditions":[1.5978078E2,1.5860768E2,-3.6981838E0,1.4383243E2,1.6280255E2,1.2857142E-1,2.6295617E0,-4.3901796E0,1.4374525E2,-3.0352075E0,1.6621417E2,1.9546397E0,1.757003E2,1.39035E2,1.3072768E2,1.4098434E2,1.4303075E2,3.1034475E-2,1.592547E2,-1.7027028E-1,7.12097E1,1.5420734E2,1.6530954E2,-2.1381217E-1,1.9116443E2,3.8360658E-1,3.4831093E1,1.2394335E2,1.4279483E2,1.4931819E2,1.4159831E2,1.5116487E2,-2.1210195E-1,7.2E-2,3.5753426E-1,3.1034482E-1,-3.600001E-2,-7.663455E-9,1.50726E2,6.388916E1,-1.7027028E-1,6.969719E1,-1.956522E-1,1.2857142E-1,-1.2857145E-1,7.2E-2,-1.9870132E-1,2.232E-1,-1.7821796E-2,1.2413793E-1,-1.7628868E-1,-1.5517244E-1,2.3684211E-1,1.7999999E-1,-1.2857145E-1,-9.729732E-2,-2.1063831E-1,3.5999998E-1,-6.206898E-2,1.9459459E-1,-1.7560977E-1],"split_indices":[0,6,3,7,7,0,3,3,1,3,6,3,4,5,4,1,0,0,6,0,2,5,1,0,6,0,2,4,0,6,4,1,0,0,0,0,0,0,4,2,0,2,0,0,0,0,0,0,0,0,0,0,0,0,0,0,0,0,0,0,0],"split_type":[0,0,0,0,0,0,0,0,0,0,0,0,0,0,0,0,0,0,0,0,0,0,0,0,0,0,0,0,0,0,0,0,0,0,0,0,0,0,0,0,0,0,0,0,0,0,0,0,0,0,0,0,0,0,0,0,0,0,0,0,0],"sum_hessian":[1.6044443E2,9.822221E1,6.2222218E1,7.999999E1,1.8222221E1,1.3333333E0,6.0888885E1,4.0888885E1,3.9111107E1,1.1111111E1,7.1111107E0,2.8444443E1,3.2444443E1,8.444444E0,3.2444443E1,1.9555553E1,1.9555553E1,2.222222E0,8.888888E0,3.111111E0,3.9999998E0,1.911111E1,9.333333E0,1.911111E1,1.3333332E1,5.7777777E0,2.6666665E0,9.333333E0,2.311111E1,1.1999999E1,7.5555553E0,3.111111E0,1.6444443E1,1.7777777E0,7.1111107E0,2.222222E0,1.7777777E0,1.3333333E0,1.7777777E1,6.222222E0,3.111111E0,6.666666E0,6.666666E0,1.3333333E0,1.3333333E0,1.7777777E0,7.5555553E0,1.2888888E1,1.0222221E1,2.222222E0,9.777777E0,2.222222E0,5.333333E0,1.7777777E0,1.3333333E0,3.111111E0,1.4666666E1,3.9999998E0,2.222222E0,3.111111E0,3.5555553E0],"tree_param":{"num_deleted":"0","num_feature":"8","num_nodes":"61","size_leaf_vector":"1"}},{"base_weights":[-2.3216209E-1,-2.5390047E-1,2.0326391E-1,-1.871231E-1,-6.108629E-1,-5.542931E-1,-1.2658077E-1,-1.9420584E-1,-3.3896705E-3,1.8789718E-2,-1.9620433E-1,-1.8555821E-1,-8.031689E-2,-1.1911798E-1,1.23052634E-1,2.3200858E-1,-2.0796967E-1,-5.0794307E-2,2.4761419E-1,-7.986669E-2,8.4646225E-2],"categories":[],"categories_nodes":[],"categories_segments":[],"categories_sizes":[],"default_left":[0,0,0,0,0,0,0,0,0,0,0,0,0,0,0,0,0,0,0,0,0],"id":3,"left_children":[1,3,-1,5,7,9,11,-1,-1,13,-1,-1,15,-1,-1,17,19,-1,-1,-1,-1],"loss_changes":[3.1914358E0,3.457611E0,0E0,2.7679577E0,4.996624E-1,1.0281792E0,2.4742966E0,0E0,0E0,7.499032E-1,0E0,0E0,4.135438E0,0E0,0E0,7.335142E0,2.1678784E0,0E0,0E0,0E0,0E0],"parents":[2147483647,0,0,1,1,3,3,4,4,5,5,6,6,9,9,12,12,15,15,16,16],"right_children":[2,4,-1,6,8,10,12,-1,-1,14,-1,-1,16,-1,-1,18,20,-1,-1,-1,-1],"split_conditions":[1.9525633E2,1.6900323E2,2.0326391E-1,1.3881593E2,1.8557379E2,-4.3476586E0,3.6085747E1,-1.9420584E-1,-3.3896705E-3,1.3447606E2,-1.9620433E-1,-1.8555821E-1,1.4168117E2,-1.1911798E-1,1.23052634E-1,1.3785123E2,1.6410779E2,-5.0794307E-2,2.4761419E-1,-7.986669E-2,8.4646225E-2],"split_indices":[6,0,0,0,1,3,2,0,0,0,0,0,4,0,0,4,1,0,0,0,0],"split_type":[0,0,0,0,0,0,0,0,0,0,0,0,0,0,0,0,0,0,0,0,0],"sum_hessian":[1.5168352E2,1.4884756E2,2.8359604E0,1.26674614E2,2.2172949E1,1.677629E1,1.0989832E2,2.0825773E1,1.3471743E0,2.6068296E0,1.416946E1,8.38345E0,1.0151487E2,1.2568847E0,1.3499451E0,2.9215761E1,7.229911E1,1.7854593E1,1.1361169E1,6.502726E1,7.271854E0],"tree_param":{"num_deleted":"0","num_feature":"8","num_nodes":"21","size_leaf_vector":"1"}},{"base_weights":[2.903413E-1,1.7608671E-1,7.0472276E-1,2.0585792E-1,-1.8471092E-1,7.731407E-1,-1.3179539E-1,1.5659879E-1,8.4447885E-1,2.0293877E-1,8.168879E-1,2.3633364E-1,-9.835422E-2,6.544063E-2,9.7204304E-1,2.0416074E-1,-1.2159864E-1,5.723354E-1,2.7877423E-1,1.4433192E-1,6.531154E-1,3.0645695E-2,-1.870935E-1,1.018942E-1,3.210919E-1,6.482293E-1,-7.832207E-3,5.9913825E-2,-1.4138442E-1,-6.5598674E-2,2.4248402E-1,-8.265038E-2,1.6428012E-1,7.7378154E-2,2.1796633E-1],"categories":[],"categories_nodes":[],"categories_segments":[],"categories_sizes":[],"default_left":[0,0,0,0,0,0,0,0,0,0,0,0,0,0,0,0,0,0,0,0,0,0,0,0,0,0,0,0,0,0,0,0,0,0,0],"id":4,"left_children":[1,3,5,7,-1,9,-1,11,13,15,17,19,21,-1,23,-1,-1,25,-1,27,29,31,-1,-1,-1,33,-1,-1,-1,-1,-1,-1,-1,-1,-1],"loss_changes":[7.7650185E0,3.237131E0,3.1324997E0,3.8917694E0,0E0,6.830845E-1,0E0,2.4623737E0,5.016618E-1,1.3667957E0,3.2751083E-1,3.4217067E0,2.0039356E0,0E0,7.965088E-2,0E0,0E0,5.823374E-1,0E0,2.6987338E0,2.381227E0,4.02344E0,0E0,0E0,0E0,1.5152645E-1,0E0,0E0,0E0,0E0,0E0,0E0,0E0,0E0,0E0],"parents":[2147483647,0,0,1,1,2,2,3,3,5,5,7,7,8,8,9,9,10,10,11,11,12,12,14,14,17,17,19,19,20,20,21,21,25,25],"right_children":[2,4,6,8,-1,10,-1,12,14,16,18,20,22,-1,24,-1,-1,26,-1,28,30,32,-1,-1,-1,34,-1,-1,-1,-1,-1,-1,-1,-1,-1],"split_conditions":[1.6883931E2,1.6575351E2,1.9050412E2,1.7070006E2,-1.8471092E-1,1.6487276E2,-1.3179539E-1,1.5643578E2,1.6515317E2,3.086114E0,6.2681473E1,1.5324063E2,1.6249213E2,6.544063E-2,1.2268935E0,2.0416074E-1,-1.2159864E-1,6.1473312E1,2.7877423E-1,1.608572E2,1.4334381E2,1.473216E2,-1.870935E-1,1.018942E-1,3.210919E-1,1.715203E2,-7.832207E-3,5.9913825E-2,-1.4138442E-1,-6.5598674E-2,2.4248402E-1,-8.265038E-2,1.6428012E-1,7.7378154E-2,2.1796633E-1],"split_indices":[4,4,0,6,0,0,0,1,7,3,2,1,7,0,3,0,0,2,0,5,0,4,0,0,0,4,0,0,0,0,0,0,0,0,0],"split_type":[0,0,0,0,0,0,0,0,0,0,0,0,0,0,0,0,0,0,0,0,0,0,0,0,0,0,0,0,0,0,0,0,0,0,0],"sum_hessian":[1.6563031E2,1.3094945E2,3.468086E1,1.2691737E2,4.03207E0,3.302976E1,1.6511016E0,1.18984856E2,7.9325175E0,2.755352E0,3.0274406E1,9.0693954E1,2.82909E1,1.800757E0,6.1317606E0,1.476909E0,1.2784431E0,1.1449072E1,1.8825335E1,7.5396904E1,1.529705E1,2.346907E1,4.8218303E0,1.4239718E0,4.7077885E0,1.0086695E1,1.3623774E0,6.9793816E1,5.603092E0,2.2494578E0,1.3047592E1,1.50332575E1,8.435812E0,2.4033895E0,7.6833053E0],"tree_param":{"num_deleted":"0","num_feature":"8","num_nodes":"35","size_leaf_vector":"1"}},{"base_weights":[-8.26993E-2,8.755089E-2,-3.8415587E-1,4.065748E-2,3.053608E-1,-2.4572529E-1,-5.0433713E-1,2.9476497E-1,-1.2257678E-1,-5.059535E-1,2.5496835E-1,-1.9240901E-1,-2.9292804E-1,7.7237135E-1,1.17052026E-1,-3.983797E-1,9.706811E-2,1.7621838E-2,-5.4843265E-1,6.09852E-1,-1.5381901E-1,2.4957316E-2,-1.771233E-1,2.8190988E-1,2.3078276E-1,-4.290462E-1,3.683601E-1,7.337024E-2,-5.3432554E-1,-2.781249E-1,3.02205E-1,-1.7142895E-1,-1.9471456E-1,2.822503E-1,-4.909545E-2,1.6280113E-1,-1.5540272E-1,2.2345178E-1,-1.24434896E-1,6.5046534E-2,-1.817984E-1,2.8374812E-1,5.947968E-2,-6.0237512E-2,1.5667658E-1,-1.8456337E-1,5.8977347E-2,1.0946254E-1,-1.8838802E-1,1.5731476E-1,-9.515492E-2,-1.3774468E-1,4.8445128E-2],"categories":[],"categories_nodes":[],"categories_segments":[],"categories_sizes":[],"default_left":[0,0,0,0,0,0,0,0,0,0,0,0,0,0,0,0,0,0,0,0,0,0,0,0,0,0,0,0,0,0,0,0,0,0,0,0,0,0,0,0,0,0,0,0,0,0,0,0,0,0,0,0,0],"id":5,"left_children":[1,3,5,7,-1,9,11,13,15,17,19,-1,21,23,25,27,29,-1,31,33,-1,35,-1,-1,37,39,41,43,45,47,49,51,-1,-1,-1,-1,-1,-1,-1,-1,-1,-1,-1,-1,-1,-1,-1,-1,-1,-1,-1,-1,-1],"loss_changes":[8.059417E0,4.3539915E0,8.1814575E-1,4.05788E0,0E0,3.8118122E0,6.626682E-1,3.1533272E0,3.6577384E0,4.863944E-1,3.1274073E0,0E0,1.2806994E0,7.061529E-1,4.142323E0,1.7503161E0,2.7055619E0,0E0,5.6036663E-1,2.0797317E0,0E0,2.369998E0,0E0,0E0,1.5466439E0,1.2298453E0,1.8182297E0,9.4762546E-1,1.3526034E0,3.054564E0,3.2626488E0,5.615869E-1,0E0,0E0,0E0,0E0,0E0,0E0,0E0,0E0,0E0,0E0,0E0,0E0,0E0,0E0,0E0,0E0,0E0,0E0,0E0,0E0,0E0],"parents":[2147483647,0,0,1,1,2,2,3,3,5,5,6,6,7,7,8,8,9,9,10,10,12,12,13,13,14,14,15,15,16,16,18,18,19,19,21,21,24,24,25,25,26,26,27,27,28,28,29,29,30,30,31,31],"right_children":[2,4,6,8,-1,10,12,14,16,18,20,-1,22,24,26,28,30,-1,32,34,-1,36,-1,-1,38,40,42,44,46,48,50,52,-1,-1,-1,-1,-1,-1,-1,-1,-1,-1,-1,-1,-1,-1,-1,-1,-1,-1,-1,-1,-1],"split_conditions":[1.6020659E2,1.6247623E2,2.6295617E0,1.4264227E2,3.053608E-1,1.9546397E0,1.757003E2,-4.3901796E0,1.132645E0,2.9841106E1,1.6530954E2,-1.9240901E-1,1.9116443E2,1.39035E2,1.3072768E2,1.4303075E2,1.4098434E2,1.7621838E-2,1.5495242E2,6.388916E1,-1.5381901E-1,6.969719E1,-1.771233E-1,2.8190988E-1,3.3478466E1,1.3304968E2,1.4086143E2,1.4974997E2,1.6151854E2,1.528255E2,1.6303983E2,3.800209E1,-1.9471456E-1,2.822503E-1,-4.909545E-2,1.6280113E-1,-1.5540272E-1,2.2345178E-1,-1.24434896E-1,6.5046534E-2,-1.817984E-1,2.8374812E-1,5.947968E-2,-6.0237512E-2,1.5667658E-1,-1.8456337E-1,5.8977347E-2,1.0946254E-1,-1.8838802E-1,1.5731476E-1,-9.515492E-2,-1.3774468E-1,4.8445128E-2],"split_indices":[0,1,3,7,0,3,4,3,3,2,1,0,6,5,4,0,1,0,7,2,0,2,0,0,2,6,6,6,6,6,7,2,0,0,0,0,0,0,0,0,0,0,0,0,0,0,0,0,0,0,0,0,0],"split_type":[0,0,0,0,0,0,0,0,0,0,0,0,0,0,0,0,0,0,0,0,0,0,0,0,0,0,0,0,0,0,0,0,0,0,0,0,0,0,0,0,0,0,0,0,0,0,0,0,0,0,0,0,0],"sum_hessian":[1.5537779E2,9.9751724E1,5.5626072E1,9.5958565E1,3.7931626E0,2.7265255E1,2.8360817E1,3.721697E1,5.8741592E1,1.7933878E1,9.331377E0,1.5973642E1,1.2387174E1,9.18526E0,2.803171E1,2.568092E1,3.3060673E1,1.2279133E0,1.6705963E1,6.5220437E0,2.8093333E0,6.431105E0,5.9560685E0,6.455653E0,2.7296066E0,8.611491E0,1.942022E1,5.8479743E0,1.9832945E1,1.1560624E1,2.150005E1,4.088883E0,1.2617081E1,4.416076E0,2.1059678E0,3.2923894E0,3.138716E0,1.433973E0,1.2956337E0,1.8034599E0,6.808031E0,3.3810463E0,1.6039173E1,3.9736857E0,1.8742887E0,1.7999376E1,1.8335688E0,4.05835E0,7.502274E0,1.593682E1,5.5632286E0,1.9899127E0,2.0989704E0],"tree_param":{"num_deleted":"0","num_feature":"8","num_nodes":"53","size_leaf_vector":"1"}},{"base_weights":[-1.9314432E-1,-8.965427E-2,-3.5423452E-1,-3.5424563E-1,4.2226557E-2,-4.6327916E-1,-4.541254E-2,-1.7640704E-1,-2.3539703E-1,-5.1309717E-1,1.4115015E-1,-4.9687195E-1,8.551184E-2,-2.4967527E-1,2.9665956E-1,2.8833067E-1,-4.4384572E-1,-1.8177848E-1,1.8683428E-2,5.20105E-1,1.1651725E-2,-2.0760544E-1,-1.6491951E-1,1.8768577E-1,-1.7391093E-1,2.3051283E-1,-1.3527773E-1,2.7165088E-1,-1.4540899E-1,-5.4485583E-1,6.368416E-2,7.4027646E-1,7.08932E-3,-7.9705946E-2,5.930612E-1,-1.6790584E-1,2.5512606E-1,-2.6709446E-1,2.604932E-1,-1.8148637E-1,-8.643077E-2,8.8374436E-2,2.810832E-1,-1.5482035E-1,1.8394554E-1,-4.3359715E-2,1.7804529E-1,1.1150124E-2,2.2220051E-1,2.076603E-2,-1.3373958E-1],"categories":[],"categories_nodes":[],"categories_segments":[],"categories_sizes":[],"default_left":[0,0,0,0,0,0,0,0,0,0,0,0,0,0,0,0,0,0,0,0,0,0,0,0,0,0,0,0,0,0,0,0,0,0,0,0,0,0,0,0,0,0,0,0,0,0,0,0,0,0,0],"id":6,"left_children":[1,3,5,7,9,11,13,-1,15,17,19,21,-1,23,25,27,29,-1,-1,31,33,35,-1,37,-1,-1,-1,-1,-1,39,-1,41,43,45,47,-1,-1,49,-1,-1,-1,-1,-1,-1,-1,-1,-1,-1,-1,-1,-1],"loss_changes":[2.362092E0,3.1123688E0,1.8589478E0,6.8490624E-1,3.3757539E0,1.1760569E0,1.1694597E0,0E0,2.454725E0,5.3489304E-1,2.5371633E0,4.9361706E-1,0E0,1.6039901E0,2.5746124E0,3.622981E0,1.1521475E0,0E0,0E0,1.4830265E0,2.1532204E0,3.3620944E0,0E0,1.8447037E0,0E0,0E0,0E0,0E0,0E0,3.9161682E-2,0E0,5.312691E-1,1.8911068E0,1.6195474E0,4.2396736E-1,0E0,0E0,2.6453778E-1,0E0,0E0,0E0,0E0,0E0,0E0,0E0,0E0,0E0,0E0,0E0,0E0,0E0],"parents":[2147483647,0,0,1,1,2,2,3,3,4,4,5,5,6,6,8,8,9,9,10,10,11,11,13,13,14,14,15,15,16,16,19,19,20,20,21,21,23,23,29,29,31,31,32,32,33,33,34,34,37,37],"right_children":[2,4,6,8,10,12,14,-1,16,18,20,22,-1,24,26,28,30,-1,-1,32,34,36,-1,38,-1,-1,-1,-1,-1,40,-1,42,44,46,48,-1,-1,50,-1,-1,-1,-1,-1,-1,-1,-1,-1,-1,-1,-1,-1],"split_conditions":[5.820797E1,1.4264227E2,3.7962549E0,3.6085747E1,1.4312753E2,1.9026007E2,1.4760513E2,-1.7640704E-1,4.067453E1,1.4935532E2,1.5095557E2,1.4376817E2,8.551184E-2,1.473072E2,1.7404463E2,1.4760513E2,1.3847453E2,-1.8177848E-1,1.8683428E-2,1.4168117E2,2.5984313E0,1.4164714E2,-1.6491951E-1,1.4470659E2,-1.7391093E-1,2.3051283E-1,-1.3527773E-1,2.7165088E-1,-1.4540899E-1,4.8911125E1,6.368416E-2,1.4798392E2,1.4788239E2,1.7743346E2,1.6911676E2,-1.6790584E-1,2.5512606E-1,1.47582E2,2.604932E-1,-1.8148637E-1,-8.643077E-2,8.8374436E-2,2.810832E-1,-1.5482035E-1,1.8394554E-1,-4.3359715E-2,1.7804529E-1,1.1150124E-2,2.2220051E-1,2.076603E-2,-1.3373958E-1],"split_indices":[2,7,3,2,1,0,1,0,2,7,6,4,0,0,6,1,4,0,0,4,3,0,0,0,0,0,0,0,0,2,0,6,5,7,6,0,0,4,0,0,0,0,0,0,0,0,0,0,0,0,0],"split_type":[0,0,0,0,0,0,0,0,0,0,0,0,0,0,0,0,0,0,0,0,0,0,0,0,0,0,0,0,0,0,0,0,0,0,0,0,0,0,0,0,0,0,0,0,0,0,0,0,0,0,0],"sum_hessian":[1.4259169E2,8.776493E1,5.482675E1,2.8632895E1,5.913204E1,4.0149773E1,1.4676981E1,8.319867E0,2.0313028E1,8.307837E0,5.08242E1,3.874642E1,1.4033508E0,9.358698E0,5.318283E0,5.673963E0,1.4639065E1,7.1079397E0,1.1998972E0,1.2176236E1,3.8647964E1,6.747773E0,3.1998648E1,4.2103457E0,5.1483517E0,3.2437248E0,2.0745583E0,3.0597427E0,2.6142204E0,1.2833018E1,1.806046E0,8.209826E0,3.966409E0,3.414554E1,4.502426E0,5.416369E0,1.3314042E0,2.888129E0,1.3222167E0,9.299982E0,3.533037E0,3.2782974E0,4.9315295E0,2.2085042E0,1.7579046E0,3.186256E1,2.2829776E0,1.207339E0,3.2950873E0,1.2147219E0,1.6734071E0],"tree_param":{"num_deleted":"0","num_feature":"8","num_nodes":"51","size_leaf_vector":"1"}},{"base_weights":[2.2548269E-1,1.2760851E-1,5.282804E-1,-1.6031997E-1,1.4893854E-1,5.857668E-1,-2.5464094E-1,6.386378E-1,1.0771715E-1,5.5244166E-2,6.338283E-1,-3.452547E-3,-1.1608953E-1,-1.1761275E-1,2.6331463E-1,-1.8986224E-1,1.4606687E-1,1.1753273E-1,-1.2188227E-1,2.6428056E-1,5.408753E-1,6.209496E-2,3.4337693E-1,-1.4548382E-1,6.410857E-1,4.187467E-2,-9.9545345E-2,1.5462564E-1,1.8701958E-2,6.853542E-2,2.0539267E-1],"categories":[],"categories_nodes":[],"categories_segments":[],"categories_sizes":[],"default_left":[0,0,0,0,0,0,0,0,0,0,0,0,0,0,0,0,0,0,0,0,0,0,0,0,0,0,0,0,0,0,0],"id":7,"left_children":[1,3,5,-1,7,9,11,13,15,17,19,-1,-1,-1,-1,-1,21,-1,-1,-1,23,25,27,-1,29,-1,-1,-1,-1,-1,-1],"loss_changes":[4.868911E0,1.8756783E0,1.9660664E0,0E0,2.4344287E0,9.3162346E-1,1.0681039E-1,2.666591E0,3.3751423E0,8.184256E-1,3.1978226E-1,0E0,0E0,0E0,0E0,0E0,1.8128788E0,0E0,0E0,0E0,3.1667128E0,2.4538662E0,1.555109E0,0E0,3.0620193E-1,0E0,0E0,0E0,0E0,0E0,0E0],"parents":[2147483647,0,0,1,1,2,2,4,4,5,5,6,6,7,7,8,8,9,9,10,10,16,16,20,20,21,21,22,22,24,24],"right_children":[2,4,6,-1,8,10,12,14,16,18,20,-1,-1,-1,-1,-1,22,-1,-1,-1,24,26,28,-1,30,-1,-1,-1,-1,-1,-1],"split_conditions":[1.6593134E2,1.3304968E2,1.9026007E2,-1.6031997E-1,1.2900711E2,1.6431528E2,1.8468964E2,-4.645535E0,1.3668315E2,4.39689E1,1.6940007E2,-3.452547E-3,-1.1608953E-1,-1.1761275E-1,2.6331463E-1,-1.8986224E-1,6.2208973E1,1.1753273E-1,-1.2188227E-1,2.6428056E-1,1.6530954E2,1.5683963E2,3.7962549E0,-1.4548382E-1,-2.7526875E0,4.187467E-2,-9.9545345E-2,1.5462564E-1,1.8701958E-2,6.853542E-2,2.0539267E-1],"split_indices":[0,6,0,0,4,5,1,3,5,2,0,0,0,0,0,0,2,0,0,0,1,7,3,0,3,0,0,0,0,0,0],"split_type":[0,0,0,0,0,0,0,0,0,0,0,0,0,0,0,0,0,0,0,0,0,0,0,0,0,0,0,0,0,0,0],"sum_hessian":[1.6556468E2,1.2619556E2,3.936913E1,3.1882975E0,1.23007256E2,3.691076E1,2.4583726E0,8.425204E0,1.14582054E2,3.2446322E0,3.3666126E1,1.2495046E0,1.208868E0,1.4658804E0,6.9593234E0,4.8779902E0,1.0970406E2,1.9637868E0,1.2808454E0,6.8852158E0,2.6780909E1,7.7876015E1,3.1828045E1,2.0416749E0,2.4739235E1,6.5614525E1,1.2261496E1,1.922508E1,1.2602964E1,2.9583275E0,2.1780907E1],"tree_param":{"num_deleted":"0","num_feature":"8","num_nodes":"31","size_leaf_vector":"1"}},{"base_weights":[-6.593103E-2,7.6687604E-2,-3.390593E-1,3.601643E-2,2.5128582E-1,-2.1022755E-1,-4.545145E-1,2.3453505E-1,-1.24741E-1,-4.504702E-1,2.2342274E-1,-1.7977305E-1,-2.3962432E-1,6.083744E-1,1.0790079E-1,-2.7414477E-1,1.991041E-1,2.5851471E-2,-4.9560452E-1,5.213704E-1,-1.4145978E-1,5.3339604E-2,-1.6139653E-1,2.4335234E-1,9.576502E-2,-3.9832255E-1,2.878394E-1,-8.267068E-2,-4.7408068E-1,4.0169597E-1,-1.5993065E-1,2.391897E-2,-5.470776E-1,2.0663635E-1,-1.5423318E-2,1.437369E-1,-1.393493E-1,1.8634011E-1,-1.312071E-1,6.0455576E-2,-1.7249802E-1,1.4970544E-1,-9.368937E-3,-9.5943265E-2,7.208723E-2,5.6807056E-2,-1.8676227E-1,1.8472047E-1,-1.9191254E-2,-5.966389E-2,-1.796942E-1],"categories":[],"categories_nodes":[],"categories_segments":[],"categories_sizes":[],"default_left":[0,0,0,0,0,0,0,0,0,0,0,0,0,0,0,0,0,0,0,0,0,0,0,0,0,0,0,0,0,0,0,0,0,0,0,0,0,0,0,0,0,0,0,0,0,0,0,0,0,0,0],"id":8,"left_children":[1,3,5,7,-1,9,11,13,15,17,19,-1,21,23,25,27,29,-1,31,33,-1,35,-1,-1,37,39,41,43,45,47,-1,-1,49,-1,-1,-1,-1,-1,-1,-1,-1,-1,-1,-1,-1,-1,-1,-1,-1,-1,-1],"loss_changes":[5.8299136E0,3.0244105E0,6.6745186E-1,3.0526485E0,0E0,2.8202467E0,6.7100716E-1,1.9575799E0,2.618928E0,4.5760727E-1,2.31121E0,0E0,1.0957446E0,1.0240753E0,3.1332705E0,1.3653507E0,2.7820926E0,0E0,5.159352E-1,7.5043464E-1,0E0,1.7812237E0,0E0,0E0,1.4306993E0,1.0812868E0,1.7020729E0,1.6049316E0,1.864835E0,1.4477248E0,0E0,0E0,1.4774275E-1,0E0,0E0,0E0,0E0,0E0,0E0,0E0,0E0,0E0,0E0,0E0,0E0,0E0,0E0,0E0,0E0,0E0,0E0],"parents":[2147483647,0,0,1,1,2,2,3,3,5,5,6,6,7,7,8,8,9,9,10,10,12,12,13,13,14,14,15,15,16,16,18,18,19,19,21,21,24,24,25,25,26,26,27,27,28,28,29,29,32,32],"right_children":[2,4,6,8,-1,10,12,14,16,18,20,-1,22,24,26,28,30,-1,32,34,-1,36,-1,-1,38,40,42,44,46,48,-1,-1,50,-1,-1,-1,-1,-1,-1,-1,-1,-1,-1,-1,-1,-1,-1,-1,-1,-1,-1],"split_conditions":[1.6020659E2,1.6247623E2,2.6295617E0,1.4383243E2,2.5128582E-1,1.9546397E0,1.757003E2,-4.3901796E0,1.585662E2,1.5420734E2,1.7670099E2,-1.7977305E-1,1.9116443E2,1.39035E2,1.3072768E2,1.4374525E2,1.587806E2,2.5851471E-2,2.9841106E1,6.388916E1,-1.4145978E-1,6.969719E1,-1.6139653E-1,2.4335234E-1,3.3478466E1,1.2829214E2,1.4279483E2,1.4098434E2,1.4303075E2,1.6280255E2,-1.5993065E-1,2.391897E-2,1.50726E2,2.0663635E-1,-1.5423318E-2,1.437369E-1,-1.393493E-1,1.8634011E-1,-1.312071E-1,6.0455576E-2,-1.7249802E-1,1.4970544E-1,-9.368937E-3,-9.5943265E-2,7.208723E-2,5.6807056E-2,-1.8676227E-1,1.8472047E-1,-1.9191254E-2,-5.966389E-2,-1.796942E-1],"split_indices":[0,1,3,7,0,3,4,3,6,5,6,0,6,5,4,1,0,0,2,2,0,2,0,0,2,5,0,1,0,7,0,0,4,0,0,0,0,0,0,0,0,0,0,0,0,0,0,0,0,0,0],"split_type":[0,0,0,0,0,0,0,0,0,0,0,0,0,0,0,0,0,0,0,0,0,0,0,0,0,0,0,0,0,0,0,0,0,0,0,0,0,0,0,0,0,0,0,0,0,0,0,0,0,0,0],"sum_hessian":[1.4799716E2,9.770042E1,5.0296738E1,9.373756E1,3.9628627E0,2.5104507E1,2.5192228E1,4.1737354E1,5.2000206E1,1.6129799E1,8.97471E0,1.398482E1,1.1207407E1,9.598186E0,3.2139168E1,3.568886E1,1.6311344E1,1.1808151E0,1.4948983E1,6.4564285E0,2.5182815E0,6.0692415E0,5.1381655E0,6.460015E0,3.1381714E0,8.109883E0,2.4029284E1,1.8952229E1,1.6736631E1,1.3129871E1,3.1814733E0,1.1825219E0,1.3766461E1,4.8393974E0,1.6170312E0,3.3716872E0,2.6975543E0,1.4974306E0,1.6407408E0,1.813149E0,6.296734E0,1.4119915E1,9.909369E0,1.0933711E1,8.0185175E0,3.010018E0,1.3726613E1,8.774499E0,4.3553724E0,2.412651E0,1.135381E1],"tree_param":{"num_deleted":"0","num_feature":"8","num_nodes":"51","size_leaf_vector":"1"}},{"base_weights":[-1.5978846E-1,-7.014337E-2,-3.0761802E-1,-5.0564563E-1,-3.6569035E-3,-4.1162437E-1,-3.7734922E-2,-1.7020823E-1,5.909554E-4,-1.6914514E-1,5.8914185E-2,-1.9895238E-1,-1.650429E-1,-2.2222444E-1,2.6478034E-1,-1.6499399E-1,1.6710635E-1,-3.3515114E-1,1.5920961E-1,1.6154987E-1,-1.6243689E-1,1.9580665E-1,-1.2651281E-1,1.4020398E-1,-4.6660295E-1,7.176777E-1,6.315744E-2,-4.308532E-1,5.435461E-2,-2.5371745E-1,2.2488764E-1,-1.4288917E-2,2.1713042E-1,1.8148154E-2,-1.6252844E-1,-1.7412774E-2,2.7137542E-1,-3.7446175E-2,9.403465E-2,-4.5077555E-2,-1.6575351E-1,-1.2832871E-1,1.944805E-2],"categories":[],"categories_nodes":[],"categories_segments":[],"categories_sizes":[],"default_left":[0,0,0,0,0,0,0,0,0,0,0,0,0,0,0,0,0,0,0,0,0,0,0,0,0,0,0,0,0,0,0,0,0,0,0,0,0,0,0,0,0,0,0],"id":9,"left_children":[1,3,5,7,9,11,13,-1,-1,-1,15,17,-1,19,21,23,25,27,-1,29,-1,-1,-1,31,33,35,37,39,-1,41,-1,-1,-1,-1,-1,-1,-1,-1,-1,-1,-1,-1,-1],"loss_changes":[1.7491074E0,2.4440174E0,1.3919644E0,3.5137868E-1,2.6370924E0,9.5383406E-1,8.9876455E-1,0E0,0E0,0E0,1.6683731E0,1.7483085E0,0E0,1.2993757E0,1.9149357E0,2.1428907E0,2.596619E0,7.663989E-1,0E0,1.4752507E0,0E0,0E0,0E0,1.3483626E0,4.9161196E-1,1.1014764E0,1.9176942E0,3.2825255E-1,0E0,2.4014427E-1,0E0,0E0,0E0,0E0,0E0,0E0,0E0,0E0,0E0,0E0,0E0,0E0,0E0],"parents":[2147483647,0,0,1,1,2,2,3,3,4,4,5,5,6,6,10,10,11,11,13,13,14,14,15,15,16,16,17,17,19,19,23,23,24,24,25,25,26,26,27,27,29,29],"right_children":[2,4,6,8,10,12,14,-1,-1,-1,16,18,-1,20,22,24,26,28,-1,30,-1,-1,-1,32,34,36,38,40,-1,42,-1,-1,-1,-1,-1,-1,-1,-1,-1,-1,-1,-1,-1],"split_conditions":[5.820797E1,3.4958817E1,3.7962549E0,1.8884325E2,1.4016203E2,2.7131326E0,1.4760513E2,-1.7020823E-1,5.909554E-4,-1.6914514E-1,1.3785123E2,2.6295617E0,-1.650429E-1,1.473072E2,1.7404463E2,4.235945E1,1.3978094E2,1.7587582E2,1.5920961E-1,1.4470659E2,-1.6243689E-1,1.9580665E-1,-1.2651281E-1,1.4108247E2,1.3660442E2,1.4164714E2,1.6339291E2,1.4123506E2,5.435461E-2,4.4302373E0,2.2488764E-1,-1.4288917E-2,2.1713042E-1,1.8148154E-2,-1.6252844E-1,-1.7412774E-2,2.7137542E-1,-3.7446175E-2,9.403465E-2,-4.5077555E-2,-1.6575351E-1,-1.2832871E-1,1.944805E-2],"split_indices":[2,2,3,0,1,3,1,0,0,0,4,3,0,0,6,2,4,7,0,0,0,0,0,7,5,0,6,4,0,3,0,0,0,0,0,0,0,0,0,0,0,0,0],"split_type":[0,0,0,0,0,0,0,0,0,0,0,0,0,0,0,0,0,0,0,0,0,0,0,0,0,0,0,0,0,0,0,0,0,0,0,0,0,0,0,0,0,0,0],"sum_hessian":[1.3261447E2,8.3471275E1,4.9143196E1,1.0180609E1,7.3290665E1,3.5093735E1,1.404946E1,8.972097E0,1.2085116E0,6.559219E0,6.6731445E1,1.4802807E1,2.0290928E1,8.892042E0,5.1574183E0,2.1568834E1,4.516261E1,1.2929937E1,1.8728697E0,4.2621317E0,4.6299105E0,3.3268073E0,1.8306111E0,1.0986623E1,1.05822115E1,6.23491E0,3.89277E1,1.1047788E1,1.8821497E0,2.831349E0,1.430783E0,9.006162E0,1.9804615E0,1.3449571E0,9.237254E0,1.344459E0,4.890451E0,2.2517517E1,1.6410185E1,4.0173063E0,7.0304813E0,1.6092355E0,1.2221134E0],"tree_param":{"num_deleted":"0","num_feature":"8","num_nodes":"43","size_leaf_vector":"1"}},{"base_weights":[1.7840658E-1,9.888429E-2,4.3355298E-1,1.5882657E-1,-8.757277E-2,4.7519657E-1,-1.1454031E-1,8.8660404E-2,4.9012047E-1,-3.0578953E-1,1.2385206E-1,9.844186E-3,5.196436E-1,1.7790137E-1,-2.4078734E-1,-4.470719E-2,5.9196424E-1,-4.3008804E-1,1.11162774E-1,2.311498E-1,-1.2994868E-1,9.5732994E-2,-1.20133646E-1,2.2207715E-1,4.3891943E-1,-2.1572281E-1,2.644522E-1,-1.8314816E-1,-5.9322048E-2,-7.071057E-3,6.534235E-1,-9.4492435E-2,-5.2236646E-1,-4.9882826E-1,2.8505725E-1,-1.3320324E-1,5.2014595E-1,1.1527722E-1,-1.6066234E-1,4.586371E-2,1.8373775E-1,-6.960022E-2,1.2892692E-1,2.4048725E-1,1.18140526E-1,-1.1528436E-1,5.8574926E-2,-1.9666992E-1,-7.5461924E-2,1.52204E-2,-1.8412134E-1,1.4870778E-1,-2.5223417E-2,1.0738435E-1,1.9083266E-1],"categories":[],"categories_nodes":[],"categories_segments":[],"categories_sizes":[],"default_left":[0,0,0,0,0,0,0,0,0,0,0,0,0,0,0,0,0,0,0,0,0,0,0,0,0,0,0,0,0,0,0,0,0,0,0,0,0,0,0,0,0,0,0,0,0,0,0,0,0,0,0,0,0,0,0],"id":10,"left_children":[1,3,5,7,9,11,-1,13,15,17,19,21,23,25,27,-1,29,31,-1,-1,33,-1,-1,-1,35,37,39,-1,41,-1,43,45,47,49,51,-1,53,-1,-1,-1,-1,-1,-1,-1,-1,-1,-1,-1,-1,-1,-1,-1,-1,-1,-1],"loss_changes":[3.2578335E0,1.4145526E0,1.4838881E0,2.169236E0,1.4741557E0,7.5895023E-1,0E0,2.388141E0,1.1567662E0,1.4714683E0,2.8119385E0,6.6579396E-1,2.7525806E-1,2.2150793E0,1.1329921E0,0E0,5.586691E-1,3.732791E-1,0E0,0E0,2.0897384E0,0E0,0E0,0E0,2.1765957E0,2.502334E0,1.940017E0,0E0,1.1804997E0,0E0,1.8803835E-1,4.246704E-1,2.1327615E-1,4.7942948E-1,5.566309E-1,0E0,2.4825382E-1,0E0,0E0,0E0,0E0,0E0,0E0,0E0,0E0,0E0,0E0,0E0,0E0,0E0,0E0,0E0,0E0,0E0,0E0],"parents":[2147483647,0,0,1,1,2,2,3,3,4,4,5,5,7,7,8,8,9,9,10,10,11,11,12,12,13,13,14,14,16,16,17,17,20,20,24,24,25,25,26,26,28,28,30,30,31,31,32,32,33,33,34,34,36,36],"right_children":[2,4,6,8,10,12,-1,14,16,18,20,22,24,26,28,-1,30,32,-1,-1,34,-1,-1,-1,36,38,40,-1,42,-1,44,46,48,50,52,-1,54,-1,-1,-1,-1,-1,-1,-1,-1,-1,-1,-1,-1,-1,-1,-1,-1,-1,-1],"split_conditions":[1.6593134E2,1.5643578E2,1.9050412E2,1.5324063E2,4.278062E1,1.6431528E2,-1.1454031E-1,1.4800667E2,1.4334381E2,1.6072157E2,1.5325151E2,4.39689E1,1.6940007E2,4.439003E1,1.4947597E2,-4.470719E-2,-4.3901796E0,-5.082031E0,1.11162774E-1,2.311498E-1,1.6961783E2,9.5732994E-2,-1.20133646E-1,2.2207715E-1,1.6530954E2,3.6034966E1,1.4487286E2,-1.8314816E-1,6.2208973E1,-7.071057E-3,1.550074E2,1.3839473E2,1.5077097E2,-2.651976E0,1.7179E2,-1.3320324E-1,6.498053E1,1.1527722E-1,-1.6066234E-1,4.586371E-2,1.8373775E-1,-6.960022E-2,1.2892692E-1,2.4048725E-1,1.18140526E-1,-1.1528436E-1,5.8574926E-2,-1.9666992E-1,-7.5461924E-2,1.52204E-2,-1.8412134E-1,1.4870778E-1,-2.5223417E-2,1.0738435E-1,1.9083266E-1],"split_indices":[0,1,0,1,2,5,0,1,0,0,7,2,0,2,1,0,3,3,0,0,7,0,0,0,1,2,1,0,2,0,1,7,5,3,7,0,2,0,0,0,0,0,0,0,0,0,0,0,0,0,0,0,0,0,0],"split_type":[0,0,0,0,0,0,0,0,0,0,0,0,0,0,0,0,0,0,0,0,0,0,0,0,0,0,0,0,0,0,0,0,0,0,0,0,0,0,0,0,0,0,0,0,0,0,0,0,0,0,0,0,0,0,0],"sum_hessian":[1.6167781E2,1.24318596E2,3.735921E1,9.4187386E1,3.0131207E1,3.5940754E1,1.4184558E0,7.877162E1,1.5415765E1,1.4607805E1,1.5523402E1,3.2400029E0,3.2700752E1,6.2343884E1,1.642774E1,2.0551202E0,1.3360644E1,1.2647495E1,1.96031E0,3.8016105E0,1.1721792E1,1.9741623E0,1.2658405E0,6.571392E0,2.6129358E1,1.0968382E1,5.1375504E1,4.630201E0,1.1797539E1,1.2688806E0,1.20917635E1,3.1641595E0,9.4833355E0,6.098838E0,5.622954E0,1.8250271E0,2.430433E1,3.7437003E0,7.2246814E0,3.9992847E1,1.1382653E1,9.107571E0,2.689968E0,6.368661E0,5.7231026E0,1.4188224E0,1.745337E0,5.4045963E0,4.078739E0,1.1512734E0,4.9475646E0,3.3618011E0,2.2611527E0,1.183599E1,1.2468342E1],"tree_param":{"num_deleted":"0","num_feature":"8","num_nodes":"55","size_leaf_vector":"1"}},{"base_weights":[-5.4726288E-2,6.591937E-2,-3.0196464E-1,2.9736536E-2,2.1732207E-1,-2.4684727E-1,-1.6007748E-1,1.965524E-1,-1.0750698E-1,-3.0909964E-1,1.1291801E-1,5.139988E-1,9.07127E-2,-3.7072876E-1,3.7658624E-2,-1.3786505E-1,-5.241433E-1,2.0763053E-1,7.4756116E-2,-3.508549E-1,2.3054267E-1,-4.3846264E-1,4.2629316E-2,-2.8299785E-1,1.9373482E-1,-3.9516285E-1,3.475095E-1,-1.6928409E-1,-2.4012348E-1,1.653715E-1,-1.250372E-1,5.5063218E-2,-1.5876295E-1,2.0876603E-1,3.742883E-2,-1.251399E-2,-1.7348531E-1,5.8802277E-2,-1.6964845E-1,1.0105975E-1,-7.853707E-2,-3.7651967E-2,-1.710996E-1,1.7722109E-1,-5.307469E-2,2.4256622E-2,-1.2099403E-1],"categories":[],"categories_nodes":[],"categories_segments":[],"categories_sizes":[],"default_left":[0,0,0,0,0,0,0,0,0,0,0,0,0,0,0,0,0,0,0,0,0,0,0,0,0,0,0,0,0,0,0,0,0,0,0,0,0,0,0,0,0,0,0,0,0,0,0],"id":11,"left_children":[1,3,5,7,-1,9,-1,11,13,15,-1,17,19,21,23,25,27,-1,29,31,33,35,-1,37,39,41,43,-1,45,-1,-1,-1,-1,-1,-1,-1,-1,-1,-1,-1,-1,-1,-1,-1,-1,-1,-1],"loss_changes":[4.201887E0,2.2429805E0,4.5756483E-1,2.1076496E0,0E0,1.6351478E0,0E0,1.3473728E0,1.9492083E0,1.2585306E0,0E0,7.430799E-1,2.0770845E0,6.908512E-1,1.7339761E0,2.8194277E0,4.30665E-2,0E0,1.1788359E0,8.760396E-1,1.1515534E0,8.761518E-1,0E0,1.6522079E0,1.5982683E0,6.135175E-1,1.1214488E0,0E0,2.2538392E-1,0E0,0E0,0E0,0E0,0E0,0E0,0E0,0E0,0E0,0E0,0E0,0E0,0E0,0E0,0E0,0E0,0E0,0E0],"parents":[2147483647,0,0,1,1,2,2,3,3,5,5,7,7,8,8,9,9,11,11,12,12,13,13,14,14,15,15,16,16,18,18,19,19,20,20,21,21,23,23,24,24,25,25,26,26,28,28],"right_children":[2,4,6,8,-1,10,-1,12,14,16,-1,18,20,22,24,26,28,-1,30,32,34,36,-1,38,40,42,44,-1,46,-1,-1,-1,-1,-1,-1,-1,-1,-1,-1,-1,-1,-1,-1,-1,-1,-1,-1],"split_conditions":[1.6020659E2,1.6247623E2,1.9116443E2,1.4383243E2,2.1732207E-1,1.8151831E2,-1.6007748E-1,-4.3901796E0,9.685179E-1,2.6295617E0,1.1291801E-1,1.39035E2,1.3072768E2,1.6151854E2,1.4098434E2,1.9202706E0,1.757003E2,2.0763053E-1,3.3478466E1,1.3304968E2,1.4086143E2,1.4303075E2,4.2629316E-2,1.528255E2,1.6303983E2,3.9944298E1,6.388916E1,-1.6928409E-1,1.7707161E2,1.653715E-1,-1.250372E-1,5.5063218E-2,-1.5876295E-1,2.0876603E-1,3.742883E-2,-1.251399E-2,-1.7348531E-1,5.8802277E-2,-1.6964845E-1,1.0105975E-1,-7.853707E-2,-3.7651967E-2,-1.710996E-1,1.7722109E-1,-5.307469E-2,2.4256622E-2,-1.2099403E-1],"split_indices":[0,1,6,7,0,4,0,3,3,3,0,5,4,6,1,3,4,0,2,6,6,0,0,6,7,2,2,0,0,0,0,0,0,0,0,0,0,0,0,0,0,0,0,0,0,0,0],"split_type":[0,0,0,0,0,0,0,0,0,0,0,0,0,0,0,0,0,0,0,0,0,0,0,0,0,0,0,0,0,0,0,0,0,0,0,0,0,0,0,0,0,0,0,0,0,0,0],"sum_hessian":[1.392021E2,9.4044365E1,4.515774E1,9.013666E1,3.9077072E0,3.814626E1,7.0114803E0,4.0489998E1,4.9646664E1,3.5140316E1,3.0059447E0,9.159975E0,3.133002E1,1.7095104E1,3.255156E1,2.047646E1,1.46638565E1,6.107751E0,3.0522246E0,7.172117E0,2.4157904E1,1.5228711E1,1.8663933E0,1.0390734E1,2.2160826E1,1.3503888E1,6.9725714E0,1.19836E1,2.6802573E0,1.4881985E0,1.5640261E0,1.7874236E0,5.3846936E0,3.4411345E0,2.071677E1,4.3066783E0,1.0922032E1,3.968261E0,6.4224725E0,1.7060665E1,5.1001596E0,5.993678E0,7.51021E0,4.6769595E0,2.2956119E0,1.0734386E0,1.6068186E0],"tree_param":{"num_deleted":"0","num_feature":"8","num_nodes":"47","size_leaf_vector":"1"}},{"base_weights":[-1.3480462E-1,-1.5187325E-1,1.3851643E-1,-1.01193525E-1,-4.9806795E-1,-1.5978822E-1,-6.4625725E-2,-1.6480029E-1,1.6438508E-2,9.195324E-2,-1.8196476E-1,-4.763821E-3,4.8454013E-1,-4.1471058E-1,-5.7600074E-2,5.310769E-2,-8.42926E-2,-5.313081E-2,2.132599E-1,-1.6985445E-1,-4.8360042E-2,1.8833214E-1,-4.951933E-2],"categories":[],"categories_nodes":[],"categories_segments":[],"categories_sizes":[],"default_left":[0,0,0,0,0,0,0,0,0,0,0,0,0,0,0,0,0,0,0,0,0,0,0],"id":12,"left_children":[1,3,-1,5,7,-1,9,-1,-1,11,13,15,17,19,21,-1,-1,-1,-1,-1,-1,-1,-1],"loss_changes":[1.3375981E0,2.0861154E0,0E0,1.661215E0,4.6361375E-1,0E0,1.8580242E0,0E0,0E0,1.6576068E0,1.6440358E0,1.8557886E0,1.4177418E0,6.7311573E-1,2.9552588E0,0E0,0E0,0E0,0E0,0E0,0E0,0E0,0E0],"parents":[2147483647,0,0,1,1,3,3,4,4,6,6,9,9,10,10,11,11,12,12,13,13,14,14],"right_children":[2,4,-1,6,8,-1,10,-1,-1,12,14,16,18,20,22,-1,-1,-1,-1,-1,-1,-1,-1],"split_conditions":[1.9525633E2,1.6900323E2,1.3851643E-1,3.6085747E1,1.8557379E2,-1.5978822E-1,4.9795197E1,-1.6480029E-1,1.6438508E-2,4.731341E1,1.5343959E2,4.278062E1,-3.202567E0,1.4352489E2,1.4376817E2,5.310769E-2,-8.42926E-2,-5.313081E-2,2.132599E-1,-1.6985445E-1,-4.8360042E-2,1.8833214E-1,-4.951933E-2],"split_indices":[6,0,0,2,1,0,2,0,0,2,6,2,3,1,4,0,0,0,0,0,0,0,0],"split_type":[0,0,0,0,0,0,0,0,0,0,0,0,0,0,0,0,0,0,0,0,0,0,0],"sum_hessian":[1.2348348E2,1.2077316E2,2.7103229E0,1.0647806E2,1.4295104E1,7.2598205E0,9.921824E1,1.3087864E1,1.2072402E0,4.2595074E1,5.662316E1,3.4968224E1,7.626848E0,1.8906126E1,3.7717037E1,2.1305222E1,1.3663003E1,1.9993702E0,5.627478E0,1.1062803E1,7.843322E0,4.456051E0,3.3260986E1],"tree_param":{"num_deleted":"0","num_feature":"8","num_nodes":"23","size_leaf_vector":"1"}},{"base_weights":[1.442875E-1,7.736381E-2,3.6917225E-1,-1.3966025E-1,9.3308926E-2,4.069938E-1,-1.0667112E-1,5.1209396E-1,6.1123192E-2,5.0751334E-3,4.4745433E-1,-9.044799E-2,2.0066836E-1,-1.666159E-1,9.044514E-2,8.610143E-2,-1.1277775E-1,1.989397E-1,3.6996335E-1,4.604096E-1,5.0080013E-2,-1.2343434E-1,4.4097558E-1,-1.3633728E-1,1.9480427E-1,-3.6994122E-2,4.2319544E-2,1.00763604E-1,1.9390588E-1],"categories":[],"categories_nodes":[],"categories_segments":[],"categories_sizes":[],"default_left":[0,0,0,0,0,0,0,0,0,0,0,0,0,0,0,0,0,0,0,0,0,0,0,0,0,0,0,0,0],"id":13,"left_children":[1,3,5,-1,7,9,-1,11,13,15,17,-1,-1,-1,19,-1,-1,-1,21,23,25,-1,27,-1,-1,-1,-1,-1,-1],"loss_changes":[2.3247457E0,1.0975397E0,1.1204262E0,0E0,1.5744087E0,5.5545473E-1,0E0,1.2690005E0,2.0705645E0,5.5348116E-1,2.7524853E-1,0E0,0E0,0E0,1.5830104E0,0E0,0E0,0E0,1.5785065E0,2.102729E0,1.5648755E0,0E0,2.914853E-1,0E0,0E0,0E0,0E0,0E0,0E0],"parents":[2147483647,0,0,1,1,2,2,4,4,5,5,7,7,8,8,9,9,10,10,14,14,18,18,19,19,20,20,22,22],"right_children":[2,4,6,-1,8,10,-1,12,14,16,18,-1,-1,-1,20,-1,-1,-1,22,24,26,-1,28,-1,-1,-1,-1,-1,-1],"split_conditions":[1.6593134E2,1.3304968E2,1.9050412E2,-1.3966025E-1,1.2900711E2,1.6431528E2,-1.0667112E-1,-4.645535E0,1.3668315E2,4.39689E1,1.6940007E2,-9.044799E-2,2.0066836E-1,-1.666159E-1,1.3881593E2,8.610143E-2,-1.1277775E-1,1.989397E-1,1.6530954E2,1.3711429E2,1.4330461E2,-1.2343434E-1,1.8560904E2,-1.3633728E-1,1.9480427E-1,-3.6994122E-2,4.2319544E-2,1.00763604E-1,1.9390588E-1],"split_indices":[0,6,0,0,4,5,0,3,5,2,0,0,0,0,0,0,0,0,1,1,4,0,4,0,0,0,0,0,0],"split_type":[0,0,0,0,0,0,0,0,0,0,0,0,0,0,0,0,0,0,0,0,0,0,0,0,0,0,0,0,0],"sum_hessian":[1.5536465E2,1.2076892E2,3.4595737E1,2.6413233E0,1.181276E2,3.3296547E1,1.299191E0,7.3665867E0,1.1076102E2,3.1482744E0,3.0148272E1,1.0412252E0,6.3253617E0,4.214202E0,1.06546814E2,1.9511724E0,1.1971021E0,5.971225E0,2.4177048E1,9.457594E0,9.708922E1,1.614726E0,2.256232E1,1.3783038E0,8.07929E0,3.3290657E1,6.379856E1,1.6668196E1,5.894125E0],"tree_param":{"num_deleted":"0","num_feature":"8","num_nodes":"29","size_leaf_vector":"1"}},{"base_weights":[-4.3899737E-2,5.591992E-2,-2.6411122E-1,2.317279E-2,1.9510671E-1,-1.5708515E-1,-2.1256155E-1,3.8501582E-1,-2.3873735E-2,1.635281E-1,-3.0014557E-1,1.8659742E-1,-4.48936E-2,-2.6388124E-1,5.4858454E-2,3.5427117E-1,-1.0974427E-1,-1.6384578E-1,-1.4039265E-1,1.4163801E-1,-1.2889805E-1,1.0892048E-1,-3.3024886E-1,5.3599864E-1,7.444545E-3,6.517074E-3,1.7046233E-1,4.7481492E-1,-3.0218297E-1,8.730413E-2,-1.1948793E-1,5.4641115E-3,1.9635642E-1,-1.0127797E-1,2.0406168E-2,9.094033E-2,-9.8056E-2,1.8405175E-1,2.0396477E-2,-3.6204163E-2,-1.5364806E-1],"categories":[],"categories_nodes":[],"categories_segments":[],"categories_sizes":[],"default_left":[0,0,0,0,0,0,0,0,0,0,0,0,0,0,0,0,0,0,0,0,0,0,0,0,0,0,0,0,0,0,0,0,0,0,0,0,0,0,0,0,0],"id":14,"left_children":[1,3,5,7,-1,-1,9,11,13,15,17,-1,19,21,23,25,-1,-1,27,-1,-1,-1,29,31,33,35,-1,37,39,-1,-1,-1,-1,-1,-1,-1,-1,-1,-1,-1,-1],"loss_changes":[2.9091845E0,1.7647185E0,4.4045305E-1,1.5020372E0,0E0,0E0,1.2379694E0,1.0618153E0,1.4986892E0,8.833268E-1,1.0877192E0,0E0,1.1057787E0,9.343443E-1,1.3641237E0,4.423548E-1,0E0,0E0,2.0654092E0,0E0,0E0,0E0,8.8628066E-1,3.1736505E-1,1.1851816E0,4.2492235E-1,0E0,2.0708978E-1,5.441475E-1,0E0,0E0,0E0,0E0,0E0,0E0,0E0,0E0,0E0,0E0,0E0,0E0],"parents":[2147483647,0,0,1,1,2,2,3,3,6,6,7,7,8,8,9,9,10,10,12,12,13,13,14,14,15,15,18,18,22,22,23,23,24,24,25,25,27,27,28,28],"right_children":[2,4,6,8,-1,-1,10,12,14,16,18,-1,20,22,24,26,-1,-1,28,-1,-1,-1,30,32,34,36,-1,38,40,-1,-1,-1,-1,-1,-1,-1,-1,-1,-1,-1,-1],"split_conditions":[1.6020659E2,1.6247623E2,1.6213515E2,-4.3901796E0,1.9510671E-1,-1.5708515E-1,1.6394652E2,1.39035E2,-2.3480868E0,1.6679907E2,1.6940007E2,1.8659742E-1,3.3478466E1,3.2124126E1,1.3668315E2,1.6331111E2,-1.0974427E-1,-1.6384578E-1,1.715203E2,1.4163801E-1,-1.2889805E-1,1.0892048E-1,1.2394335E2,1.294472E2,1.376593E2,1.624586E2,1.7046233E-1,1.7433199E2,1.8013194E2,8.730413E-2,-1.1948793E-1,5.4641115E-3,1.9635642E-1,-1.0127797E-1,2.0406168E-2,9.094033E-2,-9.8056E-2,1.8405175E-1,2.0396477E-2,-3.6204163E-2,-1.5364806E-1],"split_indices":[0,1,0,3,0,0,0,5,3,7,0,0,2,2,5,0,0,0,4,0,0,0,4,0,4,0,0,7,1,0,0,0,0,0,0,0,0,0,0,0,0],"split_type":[0,0,0,0,0,0,0,0,0,0,0,0,0,0,0,0,0,0,0,0,0,0,0,0,0,0,0,0,0,0,0,0,0,0,0,0,0,0,0,0,0],"sum_hessian":[1.3067545E2,9.043034E1,4.0245102E1,8.6693436E1,3.7369094E0,5.1519885E0,3.5093117E1,9.148327E0,7.7545105E1,6.465003E0,2.8628113E1,5.609468E0,3.538859E0,1.857361E1,5.8971497E1,4.995617E0,1.4693861E0,1.0318969E1,1.8309143E1,1.4130551E0,2.125804E0,1.3500112E0,1.7223598E1,4.365654E0,5.4605843E1,2.2952113E0,2.7004058E0,3.4095554E0,1.4899588E1,1.3767408E0,1.5846859E1,1.0280651E0,3.3375893E0,7.4721003E0,4.713374E1,1.2625508E0,1.0326606E0,2.1638513E0,1.2457042E0,8.8363E0,6.0632873E0],"tree_param":{"num_deleted":"0","num_feature":"8","num_nodes":"41","size_leaf_vector":"1"}},{"base_weights":[-1.1210572E-1,-4.0642816E-1,-7.919306E-2,4.9756914E-2,-1.5928608E-1,1.5372197E-2,-1.8511546E-1,-3.810089E-2,2.347912E-1,-1.7194492E-1,-1.0379176E-1,-1.4566398E-1,1.2975073E-2,1.6239014E-1,-2.645116E-1,1.6445722E-1,-1.7752676E-1,-1.3239251E-1,3.0029783E-1,-3.125056E-1,1.7062397E-1,-3.6522586E-2,1.548809E-1,-7.787985E-2,1.1309359E-1,4.3384146E-2,1.7386703E-1,-1.04412526E-1,6.1147384E-2,-3.478498E-4,7.631903E-2],"categories":[],"categories_nodes":[],"categories_segments":[],"categories_sizes":[],"default_left":[0,0,0,0,0,0,0,0,0,0,0,0,0,0,0,0,0,0,0,0,0,0,0,0,0,0,0,0,0,0,0],"id":15,"left_children":[1,3,5,-1,-1,7,9,11,-1,-1,13,-1,15,17,19,21,23,-1,25,27,29,-1,-1,-1,-1,-1,-1,-1,-1,-1,-1],"loss_changes":[1.1062033E0,9.131367E-1,1.074022E0,0E0,0E0,2.3857493E0,1.5346733E0,1.2549088E0,0E0,0E0,1.8819256E0,0E0,1.4723995E0,1.5314484E0,6.2100863E-1,2.9201658E0,1.1279042E0,0E0,5.3674006E-1,5.2663684E-1,4.8463717E-2,0E0,0E0,0E0,0E0,0E0,0E0,0E0,0E0,0E0,0E0],"parents":[2147483647,0,0,1,1,2,2,5,5,6,6,7,7,10,10,12,12,13,13,14,14,15,15,16,16,18,18,19,19,20,20],"right_children":[2,4,6,-1,-1,8,10,12,-1,-1,14,-1,16,18,20,22,24,-1,26,28,30,-1,-1,-1,-1,-1,-1,-1,-1,-1,-1],"split_conditions":[1.3881593E2,-4.3476586E0,1.5026389E2,4.9756914E-2,-1.5928608E-1,1.5462325E2,1.5900171E2,3.6085747E1,2.347912E-1,-1.7194492E-1,5.820797E1,-1.4566398E-1,1.4168117E2,3.2124126E1,5.96826E0,1.3785123E2,6.522491E1,-1.3239251E-1,2.5984313E0,1.9431343E2,7.531895E1,-3.6522586E-2,1.548809E-1,-7.787985E-2,1.1309359E-1,4.3384146E-2,1.7386703E-1,-1.04412526E-1,6.1147384E-2,-3.478498E-4,7.631903E-2],"split_indices":[0,3,4,0,0,5,7,2,0,0,2,0,4,2,3,4,2,0,3,6,2,0,0,0,0,0,0,0,0,0,0],"split_type":[0,0,0,0,0,0,0,0,0,0,0,0,0,0,0,0,0,0,0,0,0,0,0,0,0,0,0,0,0,0,0],"sum_hessian":[1.1651806E2,1.0577724E1,1.0594033E2,1.8310086E0,8.7467165E0,5.6422447E1,4.9517887E1,5.363481E1,2.7876346E0,7.5318894E0,4.1985996E1,4.6236286E0,4.901118E1,1.5802961E1,2.6183035E1,2.7377787E1,2.1633394E1,2.5295756E0,1.3273386E1,2.383584E1,2.347195E0,1.5457267E1,1.192052E1,1.9307512E1,2.325883E0,9.496841E0,3.7765439E0,2.2605932E1,1.2299085E0,1.0926923E0,1.2545028E0],"tree_param":{"num_deleted":"0","num_feature":"8","num_nodes":"31","size_leaf_vector":"1"}},{"base_weights":[1.1381627E-1,5.9223577E-2,3.0974105E-1,1.1146415E-1,-1.0673065E-1,3.5332626E-1,-6.894489E-2,4.9568042E-2,4.096878E-1,-2.8369963E-1,6.557359E-2,2.6470435E-1,1.7659852E-1,1.2560782E-1,-2.3706093E-1,-3.4735527E-2,4.9298573E-1,-3.9379877E-1,8.671642E-2,1.7747699E-1,-1.6158026E-1,3.5004494E-1,-2.2228305E-1,-2.1753164E-1,1.9298299E-1,-1.6728595E-1,-8.562517E-2,1.7545507E-3,5.360785E-1,-2.136292E-1,-1.889898E-1,-4.626846E-1,1.7266928E-1,9.894743E-2,4.574902E-1,-1.0369927E-1,-1.2733226E-2,9.0932086E-2,-1.434455E-1,1.4468227E-1,2.6516516E-2,-7.375035E-2,1.08544864E-1,2.0421761E-1,9.1590755E-2,-1.09818235E-1,1.0906557E-1,1.9158768E-2,-1.7410499E-1,1.1768803E-1,-4.647478E-2,1.0064713E-1,-1.4304064E-1,1.8574063E-1,8.248797E-2],"categories":[],"categories_nodes":[],"categories_segments":[],"categories_sizes":[],"default_left":[0,0,0,0,0,0,0,0,0,0,0,0,0,0,0,0,0,0,0,0,0,0,0,0,0,0,0,0,0,0,0,0,0,0,0,0,0,0,0,0,0,0,0,0,0,0,0,0,0,0,0,0,0,0,0],"id":16,"left_children":[1,3,5,7,9,11,-1,13,15,17,19,21,-1,23,25,-1,27,29,-1,-1,31,33,35,37,39,-1,41,-1,43,45,-1,47,49,51,53,-1,-1,-1,-1,-1,-1,-1,-1,-1,-1,-1,-1,-1,-1,-1,-1,-1,-1,-1,-1],"loss_changes":[1.600355E0,1.048716E0,8.5120034E-1,1.6677425E0,9.0727913E-1,4.84236E-1,0E0,1.7051497E0,7.3904395E-1,1.0323052E0,1.957061E0,1.0798653E0,0E0,1.4616221E0,7.514463E-1,0E0,2.831688E-1,4.0325737E-1,0E0,0E0,1.2539868E0,5.187149E-1,7.867369E-2,1.5762072E0,1.5264906E0,0E0,9.7514695E-1,0E0,2.1007657E-1,8.970356E-1,0E0,4.3413913E-1,5.1092565E-1,1.1868875E0,2.53572E-1,0E0,0E0,0E0,0E0,0E0,0E0,0E0,0E0,0E0,0E0,0E0,0E0,0E0,0E0,0E0,0E0,0E0,0E0,0E0,0E0],"parents":[2147483647,0,0,1,1,2,2,3,3,4,4,5,5,7,7,8,8,9,9,10,10,11,11,13,13,14,14,16,16,17,17,20,20,21,21,22,22,23,23,24,24,26,26,28,28,29,29,31,31,32,32,33,33,34,34],"right_children":[2,4,6,8,10,12,-1,14,16,18,20,22,-1,24,26,-1,28,30,-1,-1,32,34,36,38,40,-1,42,-1,44,46,-1,48,50,52,54,-1,-1,-1,-1,-1,-1,-1,-1,-1,-1,-1,-1,-1,-1,-1,-1,-1,-1,-1,-1],"split_conditions":[1.6593134E2,1.5643578E2,1.9026007E2,1.5324063E2,4.278062E1,1.9116443E2,-6.894489E-2,1.4800667E2,1.4334381E2,1.6072157E2,1.5325151E2,1.8151831E2,1.7659852E-1,4.439003E1,1.4947597E2,-3.4735527E-2,-4.3901796E0,1.4847719E2,8.671642E-2,1.7747699E-1,1.6961783E2,-3.9074123E-2,1.8197699E2,3.6034966E1,1.3785123E2,-1.6728595E-1,6.2208973E1,1.7545507E-3,1.550074E2,1.5501064E2,-1.889898E-1,-2.651976E0,1.7179E2,-1.1066623E0,1.6940007E2,-1.0369927E-1,-1.2733226E-2,9.0932086E-2,-1.434455E-1,1.4468227E-1,2.6516516E-2,-7.375035E-2,1.08544864E-1,2.0421761E-1,9.1590755E-2,-1.09818235E-1,1.0906557E-1,1.9158768E-2,-1.7410499E-1,1.1768803E-1,-4.647478E-2,1.0064713E-1,-1.4304064E-1,1.8574063E-1,8.248797E-2],"split_indices":[0,1,0,1,2,6,0,1,0,0,7,4,0,2,1,0,3,7,0,0,7,3,0,2,4,0,2,0,1,6,0,3,7,3,0,0,0,0,0,0,0,0,0,0,0,0,0,0,0,0,0,0,0,0,0],"split_type":[0,0,0,0,0,0,0,0,0,0,0,0,0,0,0,0,0,0,0,0,0,0,0,0,0,0,0,0,0,0,0,0,0,0,0,0,0,0,0,0,0,0,0,0,0,0,0,0,0,0,0,0,0,0,0],"sum_hessian":[1.5033597E2,1.1859329E2,3.1742685E1,9.044921E1,2.8144075E1,2.9689533E1,2.0531518E0,7.586889E1,1.4580323E1,1.3565164E1,1.4578913E1,2.3111189E1,6.5783443E0,6.0405655E1,1.5463234E1,1.9416564E0,1.2638666E1,1.1640069E1,1.9250942E0,3.9130864E0,1.0665827E1,1.990432E1,3.2068682E0,9.548223E0,5.0857433E1,4.1006875E0,1.1362547E1,1.11947E0,1.15191965E1,7.683201E0,3.9568686E0,5.4089737E0,5.2568526E0,6.540412E0,1.3363909E1,1.3551033E0,1.8517649E0,3.1308088E0,6.417413E0,1.2546105E1,3.831133E1,8.698551E0,2.6639957E0,5.8824472E0,5.6367493E0,6.3673763E0,1.3158243E0,1.0714655E0,4.3375087E0,3.0287473E0,2.228105E0,4.931596E0,1.6088163E0,5.8188715E0,7.5450373E0],"tree_param":{"num_deleted":"0","num_feature":"8","num_nodes":"55","size_leaf_vector":"1"}},{"base_weights":[-3.2387406E-2,5.4473072E-2,-2.2742197E-1,-1.3169705E-2,3.485129E-1,1.1661752E-1,-2.583271E-1,1.61313E-1,-2.0571966E-1,2.2272186E-1,1.177085E-1,-1.5395297E-1,-1.9840455E-1,7.795946E-2,4.867585E-1,-1.1899424E-1,-1.5771681E-1,-1.7893837E-1,4.0500408E-1,1.5232253E-1,-2.904366E-1,4.064881E-1,-4.5122705E-2,-6.1325234E-4,6.4219457E-1,1.3529545E-1,-1.8099873E-1,2.3791891E-1,-1.6198106E-1,2.1911211E-1,8.752975E-2,3.2518828E-1,-1.0409912E-1,-1.5652391E-1,-1.385223E-1,1.7079386E-1,8.633459E-3,-3.5238862E-2,1.8758577E-1,2.4473858E-1,8.187143E-2,1.1622069E-1,-7.408717E-2,1.4305833E-1,-3.656902E-2,-1.1894228E-1,1.471282E-1,3.1966285E-3,1.5306666E-1,1.5766352E-1,-7.881818E-2],"categories":[],"categories_nodes":[],"categories_segments":[],"categories_sizes":[],"default_left":[0,0,0,0,0,0,0,0,0,0,0,0,0,0,0,0,0,0,0,0,0,0,0,0,0,0,0,0,0,0,0,0,0,0,0,0,0,0,0,0,0,0,0,0,0,0,0,0,0,0,0],"id":17,"left_children":[1,3,5,7,9,-1,11,13,15,-1,17,-1,19,21,23,25,-1,27,29,31,33,35,37,-1,39,-1,41,43,-1,-1,45,47,-1,-1,49,-1,-1,-1,-1,-1,-1,-1,-1,-1,-1,-1,-1,-1,-1,-1,-1],"loss_changes":[2.130838E0,1.7414583E0,8.3782387E-1,2.450698E0,1.4006816E0,0E0,4.7049022E-1,1.0012901E0,8.989779E-1,0E0,1.0533397E0,0E0,1.0762434E0,1.2997339E0,5.8031166E-1,1.0906862E0,0E0,1.0849392E0,5.71669E-1,7.4308956E-1,8.297684E-1,5.209186E-1,1.235099E0,0E0,1.4824796E-1,0E0,1.0878379E0,3.714133E-1,0E0,0E0,1.0233103E0,3.402763E-1,0E0,0E0,1.5283561E0,0E0,0E0,0E0,0E0,0E0,0E0,0E0,0E0,0E0,0E0,0E0,0E0,0E0,0E0,0E0,0E0],"parents":[2147483647,0,0,1,1,2,2,3,3,4,4,6,6,7,7,8,8,10,10,12,12,13,13,14,14,15,15,17,17,18,18,19,19,20,20,21,21,22,22,24,24,26,26,27,27,30,30,31,31,34,34],"right_children":[2,4,6,8,10,-1,12,14,16,-1,18,-1,20,22,24,26,-1,28,30,32,34,36,38,-1,40,-1,42,44,-1,-1,46,48,-1,-1,50,-1,-1,-1,-1,-1,-1,-1,-1,-1,-1,-1,-1,-1,-1,-1,-1],"split_conditions":[1.5978078E2,1.592547E2,-3.6981838E0,1.4383243E2,1.6384846E2,1.1661752E-1,1.6213515E2,-1.3687879E-1,1.5116487E2,2.2272186E-1,1.6549136E2,-1.5395297E-1,1.6394652E2,-4.3901796E0,1.3203369E2,-7.368689E-1,-1.5771681E-1,5.586718E1,1.4618655E2,1.6679907E2,1.6940007E2,1.39035E2,1.4860995E2,-6.1325234E-4,1.4264227E2,1.3529545E-1,5.103095E1,1.5853983E2,-1.6198106E-1,2.1911211E-1,1.5084679E2,1.6331111E2,-1.0409912E-1,-1.5652391E-1,1.6530954E2,1.7079386E-1,8.633459E-3,-3.5238862E-2,1.8758577E-1,2.4473858E-1,8.187143E-2,1.1622069E-1,-7.408717E-2,1.4305833E-1,-3.656902E-2,-1.1894228E-1,1.471282E-1,3.1966285E-3,1.5306666E-1,1.5766352E-1,-7.881818E-2],"split_indices":[0,6,3,7,6,0,0,3,1,0,6,0,0,3,0,3,0,2,1,7,0,5,0,0,7,0,2,0,0,0,1,0,0,0,1,0,0,0,0,0,0,0,0,0,0,0,0,0,0,0,0],"split_type":[0,0,0,0,0,0,0,0,0,0,0,0,0,0,0,0,0,0,0,0,0,0,0,0,0,0,0,0,0,0,0,0,0,0,0,0,0,0,0,0,0,0,0,0,0,0,0,0,0,0,0],"sum_hessian":[1.2405018E2,8.632516E1,3.772502E1,7.095698E1,1.536818E1,1.2488579E0,3.6476162E1,3.731003E1,3.3646946E1,4.8590574E0,1.0509123E1,5.5039515E0,3.0972212E1,3.0689375E1,6.6206565E0,2.7551853E1,6.095094E0,5.3559766E0,5.1531467E0,6.3017235E0,2.4670488E1,7.7365484E0,2.2952826E1,1.8354696E0,4.785187E0,2.0876465E0,2.5464207E1,2.6439075E0,2.7120688E0,1.9026276E0,3.250519E0,4.940163E0,1.3615603E0,8.814604E0,1.5855885E1,5.051605E0,2.684943E0,2.146179E1,1.4910363E0,2.4325633E0,2.3526237E0,2.1409574E0,2.3323248E1,1.3933411E0,1.2505665E0,1.4838732E0,1.7666459E0,2.221499E0,2.7186642E0,1.9892105E0,1.3866674E1],"tree_param":{"num_deleted":"0","num_feature":"8","num_nodes":"51","size_leaf_vector":"1"}},{"base_weights":[-9.629557E-2,-3.7780574E-1,-6.658492E-2,4.8586346E-2,-1.5236756E-1,1.6174944E-2,-1.6340384E-1,-2.261472E-1,1.15729004E-1,-2.6478028E-1,1.0279026E-1,-3.148605E-1,1.5150961E-1,2.3234116E-1,-1.2794647E-1,-3.129667E-1,1.2943003E-1,-1.2424515E-1,3.8900983E-1,3.02504E-1,-4.450646E-1,5.539145E-1,7.4117765E-2,-3.1075406E-1,2.8513277E-1,2.0371698E-1,-3.6899403E-1,2.4327956E-1,-1.4262266E-1,6.0228246E-1,-3.892243E-2,1.6266631E-2,1.1728457E-1,-1.499606E-1,2.1950893E-2,2.1167187E-1,-2.3291718E-2,6.3021734E-2,-8.111106E-2,-1.3706106E-1,1.2114527E-1,1.7076528E-1,-3.4094486E-2,-1.0205558E-1,1.8964216E-1,-1.652636E-1,-6.436027E-2,-5.3396385E-2,2.1111567E-1,6.392772E-2,2.0877585E-1],"categories":[],"categories_nodes":[],"categories_segments":[],"categories_sizes":[],"default_left":[0,0,0,0,0,0,0,0,0,0,0,0,0,0,0,0,0,0,0,0,0,0,0,0,0,0,0,0,0,0,0,0,0,0,0,0,0,0,0,0,0,0,0,0,0,0,0,0,0,0,0],"id":18,"left_children":[1,3,5,-1,-1,7,9,11,13,15,17,19,-1,21,23,25,-1,27,29,31,33,35,37,39,41,43,45,47,-1,49,-1,-1,-1,-1,-1,-1,-1,-1,-1,-1,-1,-1,-1,-1,-1,-1,-1,-1,-1,-1,-1],"loss_changes":[8.95077E-1,8.0474174E-1,8.098085E-1,0E0,0E0,1.3583299E0,1.2824502E0,1.2240252E0,1.1607254E0,1.2744989E0,9.287821E-1,1.3611425E0,0E0,1.346695E0,1.1101141E0,1.0115457E0,0E0,1.188632E0,7.680033E-1,5.023253E-2,4.059453E-1,9.014747E-1,9.6702015E-1,1.213554E0,5.9390986E-1,1.1025459E0,7.116451E-1,1.0415015E0,0E0,1.9195437E-2,0E0,0E0,0E0,0E0,0E0,0E0,0E0,0E0,0E0,0E0,0E0,0E0,0E0,0E0,0E0,0E0,0E0,0E0,0E0,0E0,0E0],"parents":[2147483647,0,0,1,1,2,2,5,5,6,6,7,7,8,8,9,9,10,10,11,11,13,13,14,14,15,15,17,17,18,18,19,19,20,20,21,21,22,22,23,23,24,24,25,25,26,26,27,27,29,29],"right_children":[2,4,6,-1,-1,8,10,12,14,16,18,20,-1,22,24,26,-1,28,30,32,34,36,38,40,42,44,46,48,-1,50,-1,-1,-1,-1,-1,-1,-1,-1,-1,-1,-1,-1,-1,-1,-1,-1,-1,-1,-1,-1,-1],"split_conditions":[1.3881593E2,-4.3476586E0,1.0954459E0,4.8586346E-2,-1.5236756E-1,1.4244481E2,3.7709076E0,4.630958E1,1.5026389E2,1.9050412E2,1.4760513E2,1.4313663E2,1.5150961E-1,4.278062E1,4.418732E1,1.4376817E2,1.2943003E-1,1.473072E2,1.7404463E2,1.2921701E2,1.5501064E2,-2.4970746E0,1.5637695E2,1.7743346E2,4.7931946E1,1.5180157E2,1.6883112E2,1.5434822E2,-1.4262266E-1,6.4356125E1,-3.892243E-2,1.6266631E-2,1.1728457E-1,-1.499606E-1,2.1950893E-2,2.1167187E-1,-2.3291718E-2,6.3021734E-2,-8.111106E-2,-1.3706106E-1,1.2114527E-1,1.7076528E-1,-3.4094486E-2,-1.0205558E-1,1.8964216E-1,-1.652636E-1,-6.436027E-2,-5.3396385E-2,2.1111567E-1,6.392772E-2,2.0877585E-1],"split_indices":[0,3,3,0,0,7,3,2,4,0,1,1,0,2,2,4,0,0,6,4,6,3,1,7,2,6,6,6,0,2,0,0,0,0,0,0,0,0,0,0,0,0,0,0,0,0,0,0,0,0,0],"split_type":[0,0,0,0,0,0,0,0,0,0,0,0,0,0,0,0,0,0,0,0,0,0,0,0,0,0,0,0,0,0,0,0,0,0,0,0,0,0,0,0,0,0,0,0,0,0,0,0,0,0,0],"sum_hessian":[1.09025085E2,9.28958E0,9.9735504E1,1.7564878E0,7.533092E0,5.4220924E1,4.551458E1,1.54187975E1,3.8802128E1,3.2965446E1,1.2549133E1,1.4258239E1,1.1605588E0,2.6274733E1,1.2527394E1,3.1346369E1,1.6190759E0,7.3136787E0,5.2354546E0,2.2528787E0,1.2005361E1,7.8399577E0,1.8434776E1,8.855928E0,3.6714652E0,2.808682E0,2.8537687E1,3.7237039E0,3.5899749E0,3.596013E0,1.6394416E0,1.0154282E0,1.2374504E0,1.0889244E1,1.1161165E0,6.2273483E0,1.6126094E0,1.3497914E1,4.936861E0,7.6519003E0,1.2040284E0,1.8944778E0,1.7769873E0,1.3283033E0,1.4803785E0,1.1926783E1,1.6610905E1,2.2649152E0,1.4587889E0,1.3326697E0,2.2633433E0],"tree_param":{"num_deleted":"0","num_feature":"8","num_nodes":"51","size_leaf_vector":"1"}},{"base_weights":[8.982079E-2,4.3643616E-2,2.6274222E-1,8.961267E-2,-1.0672354E-1,3.0359578E-1,-6.536844E-2,3.6309678E-2,3.5504782E-1,-2.5921324E-1,4.41149E-2,2.1669465E-1,1.6456126E-1,9.938074E-2,-2.107969E-1,5.1229495E-1,1.0062026E-1,-3.5568106E-1,6.957946E-2,5.0533247E-1,-1.6464701E-1,3.037355E-1,-2.351836E-1,-2.0818667E-1,1.5676351E-1,7.9226255E-2,-2.8471944E-1,6.3187242E-3,5.7646936E-1,-1.5533566E-1,1.6274343E-1,-5.032925E-4,-4.5536745E-1,5.4226164E-2,1.7877895E-1,-4.3137535E-1,1.253402E-1,1.7508265E-1,1.5856412E-1,-1.04797535E-1,-1.7875882E-2,8.210148E-2,-1.3398437E-1,2.1819678E-1,3.4551937E-2,-1.4374734E-1,7.1291653E-3,2.0062113E-1,5.0801773E-2,7.4594125E-2,-9.696803E-2,-1.741796E-1,-6.1756916E-2,2.1102201E-2,-1.6520967E-1,8.958377E-2,-7.549438E-2,1.2278696E-1,-9.590665E-3],"categories":[],"categories_nodes":[],"categories_segments":[],"categories_sizes":[],"default_left":[0,0,0,0,0,0,0,0,0,0,0,0,0,0,0,0,0,0,0,0,0,0,0,0,0,0,0,0,0,0,0,0,0,0,0,0,0,0,0,0,0,0,0,0,0,0,0,0,0,0,0,0,0,0,0,0,0,0,0],"id":19,"left_children":[1,3,5,7,9,11,-1,13,15,17,19,21,-1,23,25,27,29,31,-1,33,35,37,39,41,43,-1,45,-1,47,-1,-1,49,51,-1,-1,53,55,57,-1,-1,-1,-1,-1,-1,-1,-1,-1,-1,-1,-1,-1,-1,-1,-1,-1,-1,-1,-1,-1],"loss_changes":[1.1419817E0,8.058963E-1,6.600423E-1,1.2431549E0,6.4236444E-1,4.833882E-1,0E0,1.1905277E0,5.378593E-1,7.356626E-1,1.4932232E0,9.578706E-1,0E0,1.0997715E0,6.221108E-1,2.671826E-1,2.1585543E0,4.2172074E-1,0E0,3.3691645E-2,8.921684E-1,4.6664417E-1,6.343776E-2,1.2638257E0,1.1389687E0,0E0,8.4886336E-1,0E0,1.7971921E-1,0E0,0E0,3.7086797E-1,1.7121327E-1,0E0,0E0,3.9010668E-1,4.6487E-1,6.819022E-1,0E0,0E0,0E0,0E0,0E0,0E0,0E0,0E0,0E0,0E0,0E0,0E0,0E0,0E0,0E0,0E0,0E0,0E0,0E0,0E0,0E0],"parents":[2147483647,0,0,1,1,2,2,3,3,4,4,5,5,7,7,8,8,9,9,10,10,11,11,13,13,14,14,15,15,16,16,17,17,19,19,20,20,21,21,22,22,23,23,24,24,26,26,28,28,31,31,32,32,35,35,36,36,37,37],"right_children":[2,4,6,8,10,12,-1,14,16,18,20,22,-1,24,26,28,30,32,-1,34,36,38,40,42,44,-1,46,-1,48,-1,-1,50,52,-1,-1,54,56,58,-1,-1,-1,-1,-1,-1,-1,-1,-1,-1,-1,-1,-1,-1,-1,-1,-1,-1,-1,-1,-1],"split_conditions":[1.6593134E2,1.5643578E2,1.9525633E2,1.5324063E2,4.278062E1,1.9116443E2,-6.536844E-2,1.4800667E2,4.5258633E1,1.6072157E2,1.5325151E2,1.8151831E2,1.6456126E-1,4.439003E1,3.828625E1,-4.3901796E0,5.485512E1,-5.082031E0,6.957946E-2,-3.6909947E0,1.6961783E2,2.9792843E0,1.8274442E2,3.6034966E1,4.563778E1,7.9226255E-2,1.6191269E2,6.3187242E-3,1.5159883E2,-1.5533566E-1,1.6274343E-1,1.4880594E2,1.5077097E2,5.4226164E-2,1.7877895E-1,-2.651976E0,1.76829E2,1.6886919E2,1.5856412E-1,-1.04797535E-1,-1.7875882E-2,8.210148E-2,-1.3398437E-1,2.1819678E-1,3.4551937E-2,-1.4374734E-1,7.1291653E-3,2.0062113E-1,5.0801773E-2,7.4594125E-2,-9.696803E-2,-1.741796E-1,-6.1756916E-2,2.1102201E-2,-1.6520967E-1,8.958377E-2,-7.549438E-2,1.2278696E-1,-9.590665E-3],"split_indices":[0,1,6,1,2,6,0,1,2,0,7,4,0,2,2,3,2,3,0,3,7,3,4,2,2,0,7,0,4,0,0,6,5,0,0,3,6,0,0,0,0,0,0,0,0,0,0,0,0,0,0,0,0,0,0,0,0,0,0],"split_type":[0,0,0,0,0,0,0,0,0,0,0,0,0,0,0,0,0,0,0,0,0,0,0,0,0,0,0,0,0,0,0,0,0,0,0,0,0,0,0,0,0,0,0,0,0,0,0,0,0,0,0,0,0,0,0,0,0,0,0],"sum_hessian":[1.4345157E2,1.14206184E2,2.9245382E1,8.777603E1,2.6430151E1,2.729379E1,1.951592E0,7.4043816E1,1.3732215E1,1.2785851E1,1.3644301E1,2.1537378E1,5.756413E0,5.9464115E1,1.4579699E1,7.860543E0,5.8716726E0,1.0917341E1,1.8685092E0,3.808833E0,9.835468E0,1.8333763E1,3.203614E0,8.936595E0,5.052752E1,1.6173326E0,1.2962366E1,1.0617123E0,6.7988305E0,2.3753686E0,3.496304E0,2.6128676E0,8.304474E0,1.4847229E0,2.32411E0,4.8692226E0,4.9662457E0,1.2792055E1,5.5417085E0,1.3419614E0,1.8616525E0,2.9092457E0,6.027349E0,2.3127146E0,4.8214806E1,7.6115212E0,5.3508453E0,5.018848E0,1.7799826E0,1.6040428E0,1.0088248E0,4.64578E0,3.6586936E0,1.0144215E0,3.8548012E0,3.5448506E0,1.4213951E0,5.544086E0,7.2479696E0],"tree_param":{"num_deleted":"0","num_feature":"8","num_nodes":"59","size_leaf_vector":"1"}},{"base_weights":[-2.0120926E-2,5.1562726E-2,-1.997296E-1,2.395297E-2,1.6864385E-1,-3.021154E-1,-7.072621E-2,2.7738634E-1,-2.7320692E-2,-1.2874372E-1,-1.4951137E-1,4.187908E-1,-2.145399E-1,8.860955E-2,2.1836752E-1,-4.6423948E-1,1.352876E-2,-3.4942904E-1,3.6013395E-1,1.6167618E-1,2.01291E-2,-3.0749936E-2,-1.39572E-1,3.5766098E-1,-1.6456547E-1,1.0935078E-2,-1.809164E-1,3.1004763E-1,-5.1203173E-2,-6.803087E-2,-1.4699608E-1,1.6658087E-1,-2.5784673E-2,4.0188652E-1,-3.154719E-1,3.419303E-2,1.7332953E-1,-1.0577865E-1,1.3266043E-1,-1.4786755E-1,4.567186E-3,8.368586E-2,-1.0477475E-1,2.054204E-1,-1.5393575E-2,-1.2781297E-1,-1.9552538E-2],"categories":[],"categories_nodes":[],"categories_segments":[],"categories_sizes":[],"default_left":[0,0,0,0,0,0,0,0,0,0,0,0,0,0,0,0,0,0,0,0,0,0,0,0,0,0,0,0,0,0,0,0,0,0,0,0,0,0,0,0,0,0,0,0,0,0,0],"id":20,"left_children":[1,3,5,7,-1,9,11,13,15,17,-1,19,21,23,-1,25,27,29,31,-1,-1,33,-1,35,-1,-1,-1,37,39,41,-1,-1,-1,43,45,-1,-1,-1,-1,-1,-1,-1,-1,-1,-1,-1,-1],"loss_changes":[1.5331045E0,1.1894603E0,4.2697752E-1,1.0731035E0,0E0,5.69355E-1,1.2391565E0,1.1165808E0,1.2397615E0,1.337878E0,0E0,1.3477433E-1,5.975718E-1,2.069117E0,0E0,4.3464506E-1,1.2476352E0,2.928859E-1,3.9473373E-1,0E0,0E0,1.2025417E0,0E0,3.7862742E-1,0E0,0E0,0E0,1.1753178E0,1.5781542E0,4.7882104E-1,0E0,0E0,0E0,5.3582835E-1,1.335029E-1,0E0,0E0,0E0,0E0,0E0,0E0,0E0,0E0,0E0,0E0,0E0,0E0],"parents":[2147483647,0,0,1,1,2,2,3,3,5,5,6,6,7,7,8,8,9,9,11,11,12,12,13,13,15,15,16,16,17,17,18,18,21,21,23,23,27,27,28,28,29,29,33,33,34,34],"right_children":[2,4,6,8,-1,10,12,14,16,18,-1,20,22,24,-1,26,28,30,32,-1,-1,34,-1,36,-1,-1,-1,38,40,42,-1,-1,-1,44,46,-1,-1,-1,-1,-1,-1,-1,-1,-1,-1,-1,-1],"split_conditions":[1.6020659E2,1.6247623E2,1.6940007E2,1.3715262E2,1.6864385E-1,1.6394652E2,1.715203E2,1.3821815E2,1.3896701E2,1.6331111E2,-1.4951137E-1,1.7433199E2,1.8013194E2,1.3668315E2,2.1836752E-1,4.439003E1,1.4054544E2,1.5570802E2,2.5098655E0,1.6167618E-1,2.01291E-2,6.498053E1,-1.39572E-1,1.2900711E2,-1.6456547E-1,1.0935078E-2,-1.809164E-1,1.4559976E2,1.4285545E2,5.485512E1,-1.4699608E-1,1.6658087E-1,-2.5784673E-2,1.8527061E2,1.8077454E2,3.419303E-2,1.7332953E-1,-1.0577865E-1,1.3266043E-1,-1.4786755E-1,4.567186E-3,8.368586E-2,-1.0477475E-1,2.054204E-1,-1.5393575E-2,-1.2781297E-1,-1.9552538E-2],"split_indices":[0,1,0,0,0,0,4,4,0,0,0,7,1,5,0,2,5,1,3,0,0,2,0,4,0,0,0,1,5,2,0,0,0,4,0,0,0,0,0,0,0,0,0,0,0,0,0],"split_type":[0,0,0,0,0,0,0,0,0,0,0,0,0,0,0,0,0,0,0,0,0,0,0,0,0,0,0,0,0,0,0,0,0,0,0,0,0,0,0,0,0,0,0,0,0,0,0],"sum_hessian":[1.17276146E2,8.4331505E1,3.2944645E1,8.099843E1,3.3330705E0,1.7619055E1,1.5325589E1,1.2887702E1,6.811073E1,1.0234199E1,7.3848567E0,3.045885E0,1.2279704E1,9.925342E0,2.9623606E0,4.9373226E0,6.3173405E1,7.247729E0,2.9864705E0,1.8735647E0,1.1723204E0,7.7331405E0,4.546563E0,7.286968E0,2.6383736E0,1.2317971E0,3.7055256E0,1.0640865E1,5.2532543E1,2.9086301E0,4.3390985E0,1.9073477E0,1.0791228E0,2.9059815E0,4.827159E0,4.178571E0,3.1083968E0,1.4919392E0,9.148926E0,6.0283923E0,4.650415E1,1.3056713E0,1.6029587E0,1.4747031E0,1.4312785E0,2.8610895E0,1.9660695E0],"tree_param":{"num_deleted":"0","num_feature":"8","num_nodes":"47","size_leaf_vector":"1"}},{"base_weights":[-8.035511E-2,-4.0764847E-1,-5.424207E-2,-1.4360578E-1,5.8447863E-3,8.4413394E-2,-1.5486214E-1,-4.0485375E-3,4.0534905E-1,-4.033167E-1,-7.136242E-2,8.605716E-2,-3.872494E-1,2.0310369E-1,-5.656326E-2,-4.962784E-1,-1.5795246E-1,2.1694656E-1,-1.4752764E-1,-1.2305903E-1,3.3677554E-1,2.094943E-2,-1.4966829E-1,-1.2506533E-1,1.2996542E-1,-4.009033E-2,-1.6115797E-1,8.4443346E-2,-1.4474411E-1,-5.4630607E-2,-3.853018E-1,7.447533E-2,-8.04771E-2,-9.273222E-2,1.2647982E-1,-7.658327E-2,8.794916E-2,-1.504483E-1,1.0449948E-1],"categories":[],"categories_nodes":[],"categories_segments":[],"categories_sizes":[],"default_left":[0,0,0,0,0,0,0,0,0,0,0,0,0,0,0,0,0,0,0,0,0,0,0,0,0,0,0,0,0,0,0,0,0,0,0,0,0,0,0],"id":21,"left_children":[1,3,5,-1,-1,7,9,11,13,15,17,19,21,-1,23,25,27,-1,29,31,33,-1,-1,-1,-1,-1,-1,-1,-1,35,37,-1,-1,-1,-1,-1,-1,-1,-1],"loss_changes":[8.514766E-1,2.338314E-1,1.3498421E0,0E0,0E0,1.1639359E0,1.1304132E0,1.1756493E0,1.1495875E0,2.3729539E-1,2.7109828E0,1.488667E0,3.6552155E-1,0E0,9.2225647E-1,7.02126E-2,8.873035E-1,0E0,8.647385E-1,9.1749674E-1,8.3271337E-1,0E0,0E0,0E0,0E0,0E0,0E0,0E0,0E0,2.1684232E0,1.1209459E0,0E0,0E0,0E0,0E0,0E0,0E0,0E0,0E0],"parents":[2147483647,0,0,1,1,2,2,5,5,6,6,7,7,8,8,9,9,10,10,11,11,12,12,14,14,15,15,16,16,18,18,19,19,20,20,29,29,30,30],"right_children":[2,4,6,-1,-1,8,10,12,14,16,18,20,22,-1,24,26,28,-1,30,32,34,-1,-1,-1,-1,-1,-1,-1,-1,36,38,-1,-1,-1,-1,-1,-1,-1,-1],"split_conditions":[3.4958817E1,1.8884325E2,4.9927647E1,-1.4360578E-1,5.8447863E-3,1.6339291E2,1.4784915E2,1.5617812E2,-3.9074123E-2,1.4374872E2,1.4376817E2,1.4244481E2,1.5197606E2,2.0310369E-1,1.9202706E0,-1.8563426E0,1.4068289E2,2.1694656E-1,1.6593134E2,1.4313663E2,1.416853E2,2.094943E-2,-1.4966829E-1,-1.2506533E-1,1.2996542E-1,-4.009033E-2,-1.6115797E-1,8.4443346E-2,-1.4474411E-1,1.6087552E2,1.9050412E2,7.447533E-2,-8.04771E-2,-9.273222E-2,1.2647982E-1,-7.658327E-2,8.794916E-2,-1.504483E-1,1.0449948E-1],"split_indices":[2,0,2,0,0,6,5,0,3,0,4,7,7,0,3,3,4,0,0,1,1,0,0,0,0,0,0,0,0,0,0,0,0,0,0,0,0,0,0],"split_type":[0,0,0,0,0,0,0,0,0,0,0,0,0,0,0,0,0,0,0,0,0,0,0,0,0,0,0,0,0,0,0,0,0,0,0,0,0,0,0],"sum_hessian":[1.0121442E2,6.3990927E0,9.481533E1,5.3831115E0,1.0159814E0,3.993944E1,5.4875885E1,3.2083427E1,7.856014E0,1.2840034E1,4.203585E1,2.6603352E1,5.480076E0,4.6534944E0,3.2025197E0,8.570348E0,4.2696857E0,2.9341109E0,3.910174E1,1.4782727E1,1.1820624E1,1.1492993E0,4.3307767E0,1.9308629E0,1.2716569E0,1.3014293E0,7.268919E0,1.8701053E0,2.3995805E0,2.9000978E1,1.0100761E1,3.9561212E0,1.0826606E1,1.0652522E0,1.0755373E1,1.8559679E1,1.04413E1,8.992894E0,1.1078677E0],"tree_param":{"num_deleted":"0","num_feature":"8","num_nodes":"39","size_leaf_vector":"1"}},{"base_weights":[7.392808E-2,4.0484503E-2,2.633506E-1,5.209611E-2,-1.5814678E-1,3.1902197E-1,-6.1502367E-2,2.9130545E-2,3.0186465E-1,2.0787288E-1,1.5497844E-1,6.0032796E-2,-1.9532162E-1,-3.0057317E-2,4.186534E-1,3.535223E-1,-2.036498E-1,-1.2012877E-1,7.4365765E-2,-3.0833226E-1,2.4651927E-1,4.8795694E-1,-2.271782E-3,1.0564979E-3,1.390099E-1,-9.236348E-2,-1.3950737E-2,1.354229E-1,1.34494435E-2,-1.5198883E-1,3.942683E-2,-1.201667E-2,1.1876803E-1,1.614292E-1,4.089745E-2,1.0398874E-1,-9.083922E-2],"categories":[],"categories_nodes":[],"categories_segments":[],"categories_sizes":[],"default_left":[0,0,0,0,0,0,0,0,0,0,0,0,0,0,0,0,0,0,0,0,0,0,0,0,0,0,0,0,0,0,0,0,0,0,0,0,0],"id":22,"left_children":[1,3,5,7,-1,9,-1,11,13,15,-1,17,19,-1,21,23,25,-1,27,29,31,33,-1,35,-1,-1,-1,-1,-1,-1,-1,-1,-1,-1,-1,-1,-1],"loss_changes":[8.5976946E-1,8.049899E-1,5.982779E-1,6.595137E-1,0E0,3.0232203E-1,0E0,7.594738E-1,4.9759609E-1,8.879459E-1,0E0,6.602175E-1,7.391874E-1,0E0,2.3152006E-1,4.029392E-1,5.436279E-2,0E0,1.0207734E0,1.0276026E0,1.554435E-1,4.3877482E-2,0E0,4.701705E-1,0E0,0E0,0E0,0E0,0E0,0E0,0E0,0E0,0E0,0E0,0E0,0E0,0E0],"parents":[2147483647,0,0,1,1,2,2,3,3,5,5,7,7,8,8,9,9,11,11,12,12,14,14,15,15,16,16,18,18,19,19,20,20,21,21,23,23],"right_children":[2,4,6,8,-1,10,-1,12,14,16,-1,18,20,-1,22,24,26,-1,28,30,32,34,-1,36,-1,-1,-1,-1,-1,-1,-1,-1,-1,-1,-1,-1,-1],"split_conditions":[1.6530954E2,1.7536479E2,1.9026007E2,1.6961783E2,-1.5814678E-1,1.9116443E2,-6.1502367E-2,1.6272838E2,2.5984313E0,1.8151831E2,1.5497844E-1,1.3304968E2,1.6464911E2,-3.0057317E-2,6.3021293E0,-2.7526875E0,1.8274442E2,-1.2012877E-1,1.2900711E2,1.6231628E2,1.6803957E2,1.6384247E2,-2.271782E-3,1.781661E2,1.390099E-1,-9.236348E-2,-1.3950737E-2,1.354229E-1,1.34494435E-2,-1.5198883E-1,3.942683E-2,-1.201667E-2,1.1876803E-1,1.614292E-1,4.089745E-2,1.0398874E-1,-9.083922E-2],"split_indices":[1,7,0,7,0,6,0,5,3,4,0,6,1,0,3,3,4,0,4,4,0,1,0,6,0,0,0,0,0,0,0,0,0,0,0,0,0],"split_type":[0,0,0,0,0,0,0,0,0,0,0,0,0,0,0,0,0,0,0,0,0,0,0,0,0,0,0,0,0,0,0,0,0,0,0,0,0],"sum_hessian":[1.3640105E2,1.1696412E2,1.9436928E1,1.1550949E2,1.4546291E0,1.7656982E1,1.7799437E0,1.06805626E2,8.703867E0,1.2613246E1,5.0437374E0,9.452421E1,1.2281421E1,1.9911778E0,6.7126894E0,9.420136E0,3.1931095E0,2.0402822E0,9.2483925E1,1.0020595E1,2.2608256E0,5.649294E0,1.0633957E0,2.4780915E0,6.9420447E0,1.3431152E0,1.8499942E0,5.6805096E0,8.680341E1,6.8015323E0,3.2190626E0,1.0254126E0,1.2354132E0,4.480167E0,1.1691271E0,1.0935843E0,1.3845072E0],"tree_param":{"num_deleted":"0","num_feature":"8","num_nodes":"37","size_leaf_vector":"1"}},{"base_weights":[-1.7334705E-2,1.297754E-1,-8.524704E-2,3.9454368E-1,3.6613863E-2,-6.2399715E-2,-1.2885426E-1,1.6943994E-1,1.8252851E-1,-3.3654106E-1,1.4887945E-1,-8.564765E-2,1.1035549E-1,2.8858244E-1,-4.5670204E-2,-1.581539E-1,6.0182028E-2,1.9086841E-1,-9.76391E-2,-2.3493115E-2,-2.0579556E-1,9.409712E-3,1.3878915E-1,5.329592E-2,3.9756453E-1,-1.6902019E-1,2.6886883E-1,-5.7415094E-2,-4.2219034E-1,7.5968534E-2,-1.5081565E-1,-3.3522204E-2,2.1475126E-1,-2.7053904E-2,-1.4830367E-1,1.8061402E-1,1.7875882E-2,-7.7467516E-2,8.43804E-2,-1.4681016E-1,-2.692669E-2],"categories":[],"categories_nodes":[],"categories_segments":[],"categories_sizes":[],"default_left":[0,0,0,0,0,0,0,0,0,0,0,0,0,0,0,0,0,0,0,0,0,0,0,0,0,0,0,0,0,0,0,0,0,0,0,0,0,0,0,0,0],"id":23,"left_children":[1,3,5,7,9,11,-1,13,-1,15,17,19,-1,21,-1,-1,-1,23,-1,25,27,-1,-1,29,31,33,35,37,39,-1,-1,-1,-1,-1,-1,-1,-1,-1,-1,-1,-1],"loss_changes":[1.131656E0,8.691577E-1,5.815418E-1,3.408897E-1,1.2063735E0,7.6867664E-1,0E0,2.6924127E-1,0E0,7.9082906E-1,4.9852192E-1,5.2337396E-1,0E0,1.9300348E-1,0E0,0E0,0E0,5.6911695E-1,0E0,2.0768487E0,7.459415E-1,0E0,0E0,1.641213E0,1.3995928E0,7.887971E-1,1.0974624E0,1.1191114E0,1.7045641E-1,0E0,0E0,0E0,0E0,0E0,0E0,0E0,0E0,0E0,0E0,0E0,0E0],"parents":[2147483647,0,0,1,1,2,2,3,3,4,4,5,5,7,7,9,9,10,10,11,11,13,13,17,17,19,19,20,20,23,23,24,24,25,25,26,26,27,27,28,28],"right_children":[2,4,6,8,10,12,-1,14,-1,16,18,20,-1,22,-1,-1,-1,24,-1,26,28,-1,-1,30,32,34,36,38,40,-1,-1,-1,-1,-1,-1,-1,-1,-1,-1,-1,-1],"split_conditions":[1.4383243E2,1.408976E2,1.9116443E2,1.3203369E2,1.4330621E2,1.8151831E2,-1.2885426E-1,1.3183243E2,1.8252851E-1,5.293928E1,1.4308447E2,1.6020659E2,1.1035549E-1,-1.7778853E0,-4.5670204E-2,-1.581539E-1,6.0182028E-2,1.489851E2,-9.76391E-2,1.592547E2,2.6295617E0,9.409712E-3,1.3878915E-1,1.4453075E2,1.4325029E2,1.5116487E2,1.6384846E2,1.9202706E0,1.757003E2,7.5968534E-2,-1.5081565E-1,-3.3522204E-2,2.1475126E-1,-2.7053904E-2,-1.4830367E-1,1.8061402E-1,1.7875882E-2,-7.7467516E-2,8.43804E-2,-1.4681016E-1,-2.692669E-2],"split_indices":[7,1,6,0,1,4,0,4,0,2,7,0,0,3,0,0,0,6,0,6,3,0,0,6,0,1,6,3,4,0,0,0,0,0,0,0,0,0,0,0,0],"split_type":[0,0,0,0,0,0,0,0,0,0,0,0,0,0,0,0,0,0,0,0,0,0,0,0,0,0,0,0,0,0,0,0,0,0,0,0,0,0,0,0,0],"sum_hessian":[1.1116485E2,3.482242E1,7.634243E1,8.221522E0,2.6600897E1,7.2699005E1,3.643423E0,4.8789043E0,3.342618E0,5.690097E0,2.0910799E1,6.9732086E1,2.9669247E0,3.6353178E0,1.2435865E0,4.213312E0,1.476785E0,1.9759315E1,1.1514835E0,4.6745422E1,2.2986658E1,1.9434314E0,1.6918863E0,1.2618536E1,7.140779E0,3.1491827E1,1.5253597E1,1.4386949E1,8.59971E0,9.681731E0,2.9368048E0,2.9957886E0,4.1449904E0,2.6376781E1,5.115045E0,5.160833E0,1.0092765E1,9.180979E0,5.20597E0,6.7613406E0,1.8383696E0],"tree_param":{"num_deleted":"0","num_feature":"8","num_nodes":"41","size_leaf_vector":"1"}},{"base_weights":[-7.034769E-2,-2.581254E-1,-3.177863E-2,-4.4352207E-3,-4.1326106E-1,-1.3757116E-1,-5.8006546E-3,-2.1932408E-1,1.2239078E-1,-1.4546505E-1,3.0236378E-2,2.5736737E-1,-8.8636406E-2,2.4711428E-2,-1.2083023E-1,-8.474338E-2,5.618712E-1,-1.4724638E-1,-5.080905E-2,1.6091622E-1,-1.496106E-1,6.5286493E-1,-1.5694141E-2,9.270644E-2,-1.6479638E-1,-1.0251769E-1,1.086124E-1,2.1250312E-1,6.32609E-2,2.0774686E-1,2.882477E-3,-9.442146E-2,3.9618637E-2],"categories":[],"categories_nodes":[],"categories_segments":[],"categories_sizes":[],"default_left":[0,0,0,0,0,0,0,0,0,0,0,0,0,0,0,0,0,0,0,0,0,0,0,0,0,0,0,0,0,0,0,0,0],"id":24,"left_children":[1,3,5,7,9,-1,11,13,-1,-1,-1,15,17,-1,-1,19,21,-1,23,25,-1,27,-1,29,31,-1,-1,-1,-1,-1,-1,-1,-1],"loss_changes":[6.827854E-1,6.3247585E-1,8.875476E-1,7.2105604E-1,4.166882E-1,0E0,1.6947984E0,3.2847694E-1,0E0,0E0,0E0,1.987139E0,8.738725E-1,0E0,0E0,1.0602219E0,5.919914E-1,0E0,9.169167E-1,8.1153226E-1,0E0,6.562853E-2,0E0,1.2412548E0,1.4248981E0,0E0,0E0,0E0,0E0,0E0,0E0,0E0,0E0],"parents":[2147483647,0,0,1,1,2,2,3,3,4,4,6,6,7,7,11,11,12,12,15,15,16,16,18,18,19,19,21,21,23,23,24,24],"right_children":[2,4,6,8,10,-1,12,14,-1,-1,-1,16,18,-1,-1,20,22,-1,24,26,-1,28,-1,30,32,-1,-1,-1,-1,-1,-1,-1,-1],"split_conditions":[1.4230594E2,-2.8803918E0,1.4054544E2,1.2900711E2,6.78159E1,-1.3757116E-1,1.4168117E2,1.2836719E2,1.2239078E-1,-1.4546505E-1,3.0236378E-2,1.3785123E2,1.4729448E2,2.4711428E-2,-1.2083023E-1,-1.0861179E0,1.5594597E2,-1.4724638E-1,5.537403E1,3.6164055E1,-1.496106E-1,1.449479E2,-1.5694141E-2,1.5243805E2,3.7709076E0,-1.0251769E-1,1.086124E-1,2.1250312E-1,6.32609E-2,2.0774686E-1,2.882477E-3,-9.442146E-2,3.9618637E-2],"split_indices":[0,3,5,4,2,0,4,7,0,0,0,4,7,0,0,3,1,0,2,2,0,0,0,6,3,0,0,0,0,0,0,0,0],"split_type":[0,0,0,0,0,0,0,0,0,0,0,0,0,0,0,0,0,0,0,0,0,0,0,0,0,0,0,0,0,0,0,0,0],"sum_hessian":[9.440861E1,1.5117048E1,7.9291565E1,6.126727E0,8.990321E0,3.5939708E0,7.569759E1,4.335723E0,1.7910043E0,7.9406834E0,1.049638E0,1.7618116E1,5.8079475E1,1.8477832E0,2.4879396E0,8.636588E0,8.981528E0,3.9635239E0,5.411595E1,5.8037095E0,2.8328793E0,7.767732E0,1.2137958E0,2.4037848E1,3.0078102E1,1.4588225E0,4.344887E0,6.366066E0,1.4016662E0,2.0327256E0,2.2005123E1,1.9944168E1,1.0133934E1],"tree_param":{"num_deleted":"0","num_feature":"8","num_nodes":"33","size_leaf_vector":"1"}},{"base_weights":[6.2078957E-2,1.1195933E-2,1.7478852E-1,4.80999E-2,-4.42509E-1,-1.2005176E-1,2.0263253E-1,3.9548433E-1,2.1246763E-2,-1.1498106E-3,-5.319472E-1,2.8873914E-1,-5.334664E-2,-5.382702E-2,5.855639E-1,-1.0255863E-2,3.7750915E-1,-1.8418993E-1,-5.890703E-2,-2.9974554E-2,3.100552E-1,9.4885774E-2,-1.9740863E-1,4.70205E-2,1.9906315E-1,1.1372041E-1,-1.4592716E-1,2.148939E-1,1.505428E-1,4.8862737E-1,2.3521207E-1,-1.6594188E-1,1.312531E-1,2.4967274E-4,1.6396119E-1,6.0577285E-2,-7.855867E-2,1.5636617E-1,-2.7902085E-2,5.822732E-2,1.9841951E-1,-9.84369E-2,8.362093E-2,1.552158E-1,-4.7464196E-2],"categories":[],"categories_nodes":[],"categories_segments":[],"categories_sizes":[],"default_left":[0,0,0,0,0,0,0,0,0,0,0,0,0,0,0,0,0,0,0,0,0,0,0,0,0,0,0,0,0,0,0,0,0,0,0,0,0,0,0,0,0,0,0,0,0],"id":25,"left_children":[1,3,5,7,9,-1,11,13,15,-1,17,19,21,-1,23,25,27,-1,-1,-1,29,-1,31,-1,-1,33,35,37,-1,39,41,-1,43,-1,-1,-1,-1,-1,-1,-1,-1,-1,-1,-1,-1],"loss_changes":[7.529187E-1,1.5575714E0,7.3541474E-1,7.9154426E-1,2.7259636E-1,0E0,8.8930047E-1,7.7127445E-1,9.0911067E-1,0E0,3.9284587E-2,2.780583E-1,6.388065E-1,0E0,5.705321E-2,1.2794188E0,2.5150597E-2,0E0,0E0,0E0,2.66196E-1,0E0,1.0551645E0,0E0,0E0,1.9437869E0,1.5162427E0,4.8227394E-1,0E0,2.529776E-1,6.314379E-1,0E0,6.6044426E-1,0E0,0E0,0E0,0E0,0E0,0E0,0E0,0E0,0E0,0E0,0E0,0E0],"parents":[2147483647,0,0,1,1,2,2,3,3,4,4,6,6,7,7,8,8,10,10,11,11,12,12,14,14,15,15,16,16,20,20,22,22,25,25,26,26,27,27,29,29,30,30,32,32],"right_children":[2,4,6,8,10,-1,12,14,16,-1,18,20,22,-1,24,26,28,-1,-1,-1,30,-1,32,-1,-1,34,36,38,-1,40,42,-1,44,-1,-1,-1,-1,-1,-1,-1,-1,-1,-1,-1,-1],"split_conditions":[6.2208973E1,6.0423885E1,1.3711429E2,1.389515E2,1.507153E0,-1.2005176E-1,4.1865754E0,1.3758636E2,5.8297073E1,-1.1498106E-3,1.6553554E2,9.6894294E-1,1.5434822E2,-5.382702E-2,-2.7858481E0,4.5258633E1,1.7417581E2,-1.8418993E-1,-5.890703E-2,-2.9974554E-2,1.592547E2,9.4885774E-2,1.6303983E2,4.70205E-2,1.9906315E-1,4.278062E1,1.3785123E2,1.4430487E2,1.505428E-1,1.5531544E2,1.5380621E2,-1.6594188E-1,1.6035425E2,2.4967274E-4,1.6396119E-1,6.0577285E-2,-7.855867E-2,1.5636617E-1,-2.7902085E-2,5.822732E-2,1.9841951E-1,-9.84369E-2,8.362093E-2,1.552158E-1,-4.7464196E-2],"split_indices":[2,2,1,1,3,0,3,1,2,0,0,3,6,0,3,2,6,0,0,0,6,0,7,0,0,2,4,1,0,6,0,0,4,0,0,0,0,0,0,0,0,0,0,0,0],"split_type":[0,0,0,0,0,0,0,0,0,0,0,0,0,0,0,0,0,0,0,0,0,0,0,0,0,0,0,0,0,0,0,0,0,0,0,0,0,0,0,0,0,0,0,0,0],"sum_hessian":[1.3062602E2,9.075415E1,3.9871864E1,8.4754295E1,5.999857E0,1.224051E0,3.864781E1,5.0964622E0,7.965783E1,1.1927094E0,4.8071475E0,2.8823982E1,9.82383E0,1.2802691E0,3.816193E0,7.407862E1,5.579215E0,3.196422E0,1.6107253E0,1.3069574E0,2.7517025E1,2.419758E0,7.4040713E0,1.0503E0,2.765893E0,3.879217E1,3.5286446E1,3.599289E0,1.9799261E0,6.4939866E0,2.1023039E1,3.2276168E0,4.1764545E0,3.1562023E1,7.2301474E0,8.635325E0,2.6651121E1,1.4569592E0,2.14233E0,3.1859856E0,3.308001E0,1.0388157E0,1.9984222E1,1.4520831E0,2.7243717E0],"tree_param":{"num_deleted":"0","num_feature":"8","num_nodes":"45","size_leaf_vector":"1"}},{"base_weights":[-1.3714477E-2,1.02955274E-1,-9.0796E-2,7.1819085E-3,5.367439E-1,-4.478286E-1,-3.778654E-2,3.1603667E-1,-9.390525E-2,7.3599064E-1,-9.29413E-2,-1.7265557E-1,6.778827E-2,8.302647E-2,-1.5721087E-1,1.5035336E-1,1.6308822E-1,-3.8876462E-1,1.929834E-2,2.5893533E-1,1.785011E-2,-3.122806E-1,1.6226201E-1,9.933547E-2,-1.8914182E-1,3.4506646E-1,-1.1688264E-1,-1.5618223E-1,-1.6242778E-2,2.4642159E-1,-2.8581268E-1,4.943811E-2,-1.4046851E-1,4.9497992E-1,5.6889407E-2,-1.3842683E-1,-1.24480516E-1,1.9401936E-2,1.2772465E-1,1.40928645E-2,1.8447697E-1,5.9874516E-2,-1.3025808E-1,1.762414E-1,3.413606E-2,-1.08861096E-1,6.259019E-2,3.749397E-2,-6.2104844E-2],"categories":[],"categories_nodes":[],"categories_segments":[],"categories_sizes":[],"default_left":[0,0,0,0,0,0,0,0,0,0,0,0,0,0,0,0,0,0,0,0,0,0,0,0,0,0,0,0,0,0,0,0,0,0,0,0,0,0,0,0,0,0,0,0,0,0,0,0,0],"id":26,"left_children":[1,3,5,7,9,11,13,15,17,19,-1,-1,-1,21,23,25,-1,27,29,-1,-1,31,33,-1,35,37,-1,-1,-1,39,41,-1,-1,43,45,-1,47,-1,-1,-1,-1,-1,-1,-1,-1,-1,-1,-1,-1],"loss_changes":[9.6635103E-1,1.7744826E0,1.2059088E0,1.156042E0,1.5314825E0,8.4075546E-1,8.405017E-1,2.623576E-1,9.4050384E-1,5.120959E-1,0E0,0E0,0E0,9.641484E-1,5.1772714E-1,8.3498913E-1,0E0,3.1599772E-1,1.5360847E0,0E0,0E0,4.6488768E-1,8.4665096E-1,0E0,4.360869E-1,9.5250905E-2,0E0,0E0,0E0,9.016894E-1,7.700487E-1,0E0,0E0,1.4017713E-1,1.3547546E0,0E0,5.2046216E-1,0E0,0E0,0E0,0E0,0E0,0E0,0E0,0E0,0E0,0E0,0E0,0E0],"parents":[2147483647,0,0,1,1,2,2,3,3,4,4,5,5,6,6,7,7,8,8,9,9,13,13,14,14,15,15,17,17,18,18,21,21,22,22,24,24,25,25,29,29,30,30,33,33,34,34,36,36],"right_children":[2,4,6,8,10,12,14,16,18,20,-1,-1,-1,22,24,26,-1,28,30,-1,-1,32,34,-1,36,38,-1,-1,-1,40,42,-1,-1,44,46,-1,48,-1,-1,-1,-1,-1,-1,-1,-1,-1,-1,-1,-1],"split_conditions":[1.4658292E2,1.4499768E2,1.4893657E2,1.408976E2,1.5116487E2,1.4896223E2,1.5978078E2,1.3333386E2,1.4330621E2,1.4877258E2,-9.29413E-2,-1.7265557E-1,6.778827E-2,1.4098434E2,-3.6981838E0,5.775632E-1,1.6308822E-1,-1.8937857E-1,1.4054544E2,2.5893533E-1,1.785011E-2,1.5381656E2,1.4869945E2,9.933547E-2,1.6213515E2,1.2972214E2,-1.1688264E-1,-1.5618223E-1,-1.6242778E-2,-2.5670545E0,3.6085747E1,4.943811E-2,-1.4046851E-1,6.446356E1,1.5152559E2,-1.3842683E-1,1.6394652E2,1.9401936E-2,1.2772465E-1,1.40928645E-2,1.8447697E-1,5.9874516E-2,-1.3025808E-1,1.762414E-1,3.413606E-2,-1.08861096E-1,6.259019E-2,3.749397E-2,-6.2104844E-2],"split_indices":[5,5,5,1,1,0,0,0,1,7,0,0,0,1,3,3,0,3,5,0,0,6,0,0,0,0,0,0,0,3,2,0,0,2,0,0,0,0,0,0,0,0,0,0,0,0,0,0,0],"split_type":[0,0,0,0,0,0,0,0,0,0,0,0,0,0,0,0,0,0,0,0,0,0,0,0,0,0,0,0,0,0,0,0,0,0,0,0,0,0,0,0,0,0,0,0,0,0,0,0,0],"sum_hessian":[1.05415474E2,4.1804688E1,6.3610783E1,3.5076855E1,6.7278347E0,7.2606072E0,5.6350178E1,8.125224E0,2.695163E1,5.551751E0,1.1760832E0,6.2264752E0,1.034132E0,2.8163733E1,2.8186445E1,5.66315E0,2.4620745E0,6.801549E0,2.0150082E1,4.441266E0,1.1104851E0,4.211473E0,2.395226E1,1.1548706E0,2.7031574E1,4.4275103E0,1.2356396E0,4.4804296E0,2.3211193E0,1.1661596E1,8.488485E0,1.0235407E0,3.1879325E0,4.8718343E0,1.9080423E1,4.0099926E0,2.3021582E1,1.3918893E0,3.035621E0,8.297949E0,3.3636472E0,1.9065567E0,6.5819287E0,3.485086E0,1.3867484E0,4.6967707E0,1.4383654E1,5.595418E0,1.7426165E1],"tree_param":{"num_deleted":"0","num_feature":"8","num_nodes":"49","size_leaf_vector":"1"}},{"base_weights":[-6.253176E-2,-3.7045017E-1,-3.914375E-2,-1.3324149E-1,-4.972644E-3,8.809011E-2,-1.1634056E-1,-1.7413707E-1,1.9144182E-1,-3.613152E-1,-5.3738702E-2,7.0137404E-2,-1.3474861E-1,2.626077E-1,-1.2777932E-1,-1.4979921E-1,-1.6375741E-1,5.3303856E-1,-1.2771147E-1,-9.5854856E-2,2.5373155E-1,4.355554E-1,5.2670453E-2,-1.6152418E-1,2.4681439E-1,1.22588165E-1,-1.2847231E-1,5.684749E-2,1.8243642E-1,-2.2846824E-1,4.8028514E-2,1.4156161E-1,-4.597995E-3,-4.987001E-2,1.7001703E-1,-8.485924E-2,1.6657166E-1,2.9032102E-3,1.0918792E-1,-4.7325604E-2,1.1228037E-1,-8.2851484E-2,1.0863455E-1,6.978142E-2,-9.375612E-2],"categories":[],"categories_nodes":[],"categories_segments":[],"categories_sizes":[],"default_left":[0,0,0,0,0,0,0,0,0,0,0,0,0,0,0,0,0,0,0,0,0,0,0,0,0,0,0,0,0,0,0,0,0,0,0,0,0,0,0,0,0,0,0,0,0],"id":27,"left_children":[1,3,5,-1,-1,7,9,11,13,15,17,19,-1,21,23,-1,25,27,29,-1,31,33,35,-1,37,39,-1,-1,-1,41,43,-1,-1,-1,-1,-1,-1,-1,-1,-1,-1,-1,-1,-1,-1],"loss_changes":[6.333811E-1,1.5516376E-1,8.424797E-1,0E0,0E0,9.1590345E-1,7.959279E-1,6.851826E-1,5.750317E-1,2.0851266E-1,1.9570664E0,5.1159066E-1,0E0,6.965897E-1,9.0471786E-1,0E0,4.9679828E-1,1.54259205E-2,7.095877E-1,0E0,2.8003612E-1,9.410548E-1,1.8583509E0,0E0,8.8419184E-2,3.1264335E-1,0E0,0E0,0E0,8.1138563E-1,1.0844736E0,0E0,0E0,0E0,0E0,0E0,0E0,0E0,0E0,0E0,0E0,0E0,0E0,0E0,0E0],"parents":[2147483647,0,0,1,1,2,2,5,5,6,6,7,7,8,8,9,9,10,10,11,11,13,13,14,14,16,16,17,17,18,18,20,20,21,21,22,22,24,24,25,25,29,29,30,30],"right_children":[2,4,6,-1,-1,8,10,12,14,16,18,20,-1,22,24,-1,26,28,30,-1,32,34,36,-1,38,40,-1,-1,-1,42,44,-1,-1,-1,-1,-1,-1,-1,-1,-1,-1,-1,-1,-1,-1],"split_conditions":[3.4958817E1,1.8879375E2,-8.046266E-1,-1.3324149E-1,-4.972644E-3,1.4054544E2,1.4690619E2,1.3660442E2,4.9158424E1,1.4374872E2,1.4376817E2,1.3267291E2,-1.3474861E-1,1.5077097E2,5.149543E1,-1.4979921E-1,1.4465132E2,1.4781725E2,3.2845187E0,-9.5854856E-2,1.3886417E2,3.7293205E1,1.6339291E2,-1.6152418E-1,1.5853983E2,-1.8937857E-1,-1.2847231E-1,5.684749E-2,1.8243642E-1,1.9050412E2,6.96628E1,1.4156161E-1,-4.597995E-3,-4.987001E-2,1.7001703E-1,-8.485924E-2,1.6657166E-1,2.9032102E-3,1.0918792E-1,-4.7325604E-2,1.1228037E-1,-8.2851484E-2,1.0863455E-1,6.978142E-2,-9.375612E-2],"split_indices":[2,0,3,0,0,5,5,5,2,0,4,0,0,5,2,0,5,5,3,0,0,2,6,0,0,3,0,0,0,0,2,0,0,0,0,0,0,0,0,0,0,0,0,0,0],"split_type":[0,0,0,0,0,0,0,0,0,0,0,0,0,0,0,0,0,0,0,0,0,0,0,0,0,0,0,0,0,0,0,0,0,0,0,0,0,0,0,0,0,0,0,0,0],"sum_hessian":[8.89636E1,5.232678E0,8.373093E1,4.1197424E0,1.1129352E0,3.1565065E1,5.216586E1,8.730041E0,2.2835026E1,9.646273E0,4.2519585E1,5.018042E0,3.711998E0,1.8817318E1,4.0177083E0,4.779651E0,4.866621E0,4.0654187E0,3.8454166E1,1.3700203E0,3.6480217E0,9.728347E0,9.088971E0,1.7080231E0,2.3096852E0,2.5943377E0,2.2722833E0,1.3611492E0,2.70427E0,2.425058E1,1.4203588E1,1.5983547E0,2.049667E0,1.6931185E0,8.035229E0,5.7123456E0,3.3766253E0,1.1216803E0,1.1880049E0,1.4038382E0,1.1904995E0,2.2930761E1,1.319818E0,9.629041E0,4.5745473E0],"tree_param":{"num_deleted":"0","num_feature":"8","num_nodes":"45","size_leaf_vector":"1"}},{"base_weights":[5.2530624E-2,3.6025766E-2,3.5012627E-1,2.0390394E-1,1.0443954E-2,1.4093268E-1,1.01541884E-1,-2.563269E-1,3.2062265E-1,-3.6363125E-1,3.431122E-2,4.1083615E-2,2.6777328E-3,-1.0848586E-1,1.8016023E-3,3.957312E-1,-7.1533E-2,-2.4334066E-2,-1.7390615E-1,-8.4323384E-2,7.4743435E-2,-6.0655527E-2,4.8205918E-1,-9.957157E-2,7.7798516E-2,5.3893544E-2,-4.3353492E-1,3.6257163E-1,4.408654E-2,-6.367907E-3,1.6143326E-1,-1.1513791E-1,3.316398E-2,-1.8837926E-1,4.7692362E-2,1.8200156E-1,-1.7205194E-2,-1.5205204E-1,2.1823721E-2],"categories":[],"categories_nodes":[],"categories_segments":[],"categories_sizes":[],"default_left":[0,0,0,0,0,0,0,0,0,0,0,0,0,0,0,0,0,0,0,0,0,0,0,0,0,0,0,0,0,0,0,0,0,0,0,0,0,0,0],"id":28,"left_children":[1,3,5,7,9,-1,11,13,15,17,19,-1,-1,-1,-1,21,-1,23,-1,25,27,-1,29,-1,-1,31,33,35,37,-1,-1,-1,-1,-1,-1,-1,-1,-1,-1],"loss_changes":[6.066904E-1,5.1569486E-1,1.45944E-1,9.3575686E-1,9.5604783E-1,0E0,9.897321E-3,1.0631405E-1,6.452638E-1,4.5688146E-1,4.8721617E-1,0E0,0E0,0E0,0E0,7.1386623E-1,0E0,3.952175E-1,0E0,1.2761036E0,6.4850694E-1,0E0,3.1413484E-1,0E0,0E0,5.2556014E-1,9.602624E-1,7.636301E-1,1.1294032E0,0E0,0E0,0E0,0E0,0E0,0E0,0E0,0E0,0E0,0E0],"parents":[2147483647,0,0,1,1,2,2,3,3,4,4,6,6,7,7,8,8,9,9,10,10,15,15,17,17,19,19,20,20,22,22,25,25,26,26,27,27,28,28],"right_children":[2,4,6,8,10,-1,12,14,16,18,20,-1,-1,-1,-1,22,-1,24,-1,26,28,-1,30,-1,-1,32,34,36,38,-1,-1,-1,-1,-1,-1,-1,-1,-1,-1],"split_conditions":[7.12097E1,3.7347584E1,4.1865754E0,-4.516787E0,3.9944298E1,1.4093268E-1,1.5889174E2,1.5142613E2,1.7743346E2,1.5453484E2,1.4334381E2,4.1083615E-2,2.6777328E-3,-1.0848586E-1,1.8016023E-3,2.9566746E1,-7.1533E-2,1.4599117E2,-1.7390615E-1,1.422099E2,1.376593E2,-6.0655527E-2,1.3478268E2,-9.957157E-2,7.7798516E-2,4.439003E1,1.5531544E2,1.45583E2,1.4844202E2,-6.367907E-3,1.6143326E-1,-1.1513791E-1,3.316398E-2,-1.8837926E-1,4.7692362E-2,1.8200156E-1,-1.7205194E-2,-1.5205204E-1,2.1823721E-2],"split_indices":[2,2,3,3,2,0,0,0,7,1,0,0,0,0,0,2,0,1,0,0,4,0,6,0,0,2,6,0,6,0,0,0,0,0,0,0,0,0,0],"split_type":[0,0,0,0,0,0,0,0,0,0,0,0,0,0,0,0,0,0,0,0,0,0,0,0,0,0,0,0,0,0,0,0,0,0,0,0,0,0,0],"sum_hessian":[1.25085594E2,1.1957494E2,5.5106516E0,1.4890012E1,1.0468493E2,3.119407E0,2.391245E0,2.77032E0,1.2119692E1,5.424852E0,9.926008E1,1.3836828E0,1.0075619E0,1.7067863E0,1.0635338E0,1.0941849E1,1.1778423E0,2.543357E0,2.881495E0,2.495438E1,7.4305695E1,1.2111619E0,9.730687E0,1.1386566E0,1.4047003E0,1.8484098E1,6.470282E0,6.1103883E0,6.8195305E1,1.0373827E0,8.693305E0,1.4565709E0,1.7027527E1,4.8268604E0,1.6434219E0,3.5829186E0,2.5274699E0,2.5470636E0,6.564825E1],"tree_param":{"num_deleted":"0","num_feature":"8","num_nodes":"39","size_leaf_vector":"1"}},{"base_weights":[-9.882587E-3,1.1236108E-1,-6.646156E-2,3.224532E-1,3.8595118E-2,-4.812419E-2,-1.2442854E-1,1.3875425E-1,1.507631E-1,-2.8082624E-1,1.2730347E-1,-7.34314E-2,3.7005845E-1,2.4838032E-1,-4.3555908E-2,-1.3965037E-1,4.6288915E-2,2.2112126E-2,2.83999E-1,-5.164782E-2,-1.2098724E-1,1.52366E-1,1.6392758E-2,6.9813146E-3,1.2122325E-1,2.1825045E-1,-1.4281243E-1,-1.2987487E-1,1.693642E-1,-8.255265E-2,3.2293594E-1,1.0851733E-1,-5.772635E-2,-1.2772858E-1,6.4090304E-2,-1.0962905E-2,-1.372525E-1,1.4442879E-1,-5.4301806E-3],"categories":[],"categories_nodes":[],"categories_segments":[],"categories_sizes":[],"default_left":[0,0,0,0,0,0,0,0,0,0,0,0,0,0,0,0,0,0,0,0,0,0,0,0,0,0,0,0,0,0,0,0,0,0,0,0,0,0,0],"id":29,"left_children":[1,3,5,7,9,11,-1,13,-1,15,17,19,21,23,-1,-1,-1,25,27,29,-1,-1,-1,-1,-1,31,-1,33,-1,35,37,-1,-1,-1,-1,-1,-1,-1,-1],"loss_changes":[7.057681E-1,4.883763E-1,4.248673E-1,2.0359552E-1,7.4566406E-1,7.3935497E-1,0E0,2.0637178E-1,0E0,5.3447574E-1,3.2826793E-1,4.411202E-1,1.4638662E-1,1.4187738E-1,0E0,0E0,0E0,1.396414E0,1.0101101E0,7.380692E-1,0E0,0E0,0E0,0E0,0E0,6.6924435E-1,0E0,5.04883E-1,0E0,9.763837E-1,2.7288395E-1,0E0,0E0,0E0,0E0,0E0,0E0,0E0,0E0],"parents":[2147483647,0,0,1,1,2,2,3,3,4,4,5,5,7,7,9,9,10,10,11,11,12,12,13,13,17,17,18,18,19,19,25,25,27,27,29,29,30,30],"right_children":[2,4,6,8,10,12,-1,14,-1,16,18,20,22,24,-1,-1,-1,26,28,30,-1,-1,-1,-1,-1,32,-1,34,-1,36,38,-1,-1,-1,-1,-1,-1,-1,-1],"split_conditions":[1.4383243E2,1.408976E2,1.8560904E2,1.3203369E2,1.4330621E2,1.8151831E2,-1.2442854E-1,1.3183243E2,1.507631E-1,5.293928E1,1.489851E2,1.7626526E2,6.498053E1,-1.7778853E0,-4.3555908E-2,-1.3965037E-1,4.6288915E-2,1.4453075E2,1.4383089E2,1.6940007E2,-1.2098724E-1,1.52366E-1,1.6392758E-2,6.9813146E-3,1.2122325E-1,4.5956753E1,-1.4281243E-1,4.106786E1,1.693642E-1,1.6394652E2,1.715203E2,1.0851733E-1,-5.772635E-2,-1.2772858E-1,6.4090304E-2,-1.0962905E-2,-1.372525E-1,1.4442879E-1,-5.4301806E-3],"split_indices":[7,1,4,0,1,4,0,4,0,2,6,7,2,3,0,0,0,6,0,0,0,0,0,0,0,2,0,2,0,0,4,0,0,0,0,0,0,0,0],"split_type":[0,0,0,0,0,0,0,0,0,0,0,0,0,0,0,0,0,0,0,0,0,0,0,0,0,0,0,0,0,0,0,0,0,0,0,0,0,0,0],"sum_hessian":[9.996267E1,3.1315966E1,6.8646706E1,7.261956E0,2.4054008E1,6.6294586E1,2.3521206E0,4.471415E0,2.7905412E0,4.7574916E0,1.9296516E1,6.3288925E1,3.0056605E0,3.3162782E0,1.1551371E0,3.2909348E0,1.4665568E0,1.2228508E1,7.0680094E0,6.0453228E1,2.8356957E0,1.6670101E0,1.3386505E0,1.8258706E0,1.4904076E0,9.177088E0,3.0514195E0,3.0724702E0,3.9955392E0,5.6565907E1,3.8873239E0,6.889375E0,2.2877128E0,1.5220125E0,1.5504578E0,5.1361015E1,5.20489E0,2.3728845E0,1.5144393E0],"tree_param":{"num_deleted":"0","num_feature":"8","num_nodes":"39","size_leaf_vector":"1"}},{"base_weights":[-5.3562157E-2,-3.0921322E-1,-3.1131495E-2,4.1512795E-2,-1.3277873E-1,-3.1829056E-1,-1.2060108E-2,-1.199431E-1,-4.489101E-3,-2.8566115E-2,1.3188723E-1,6.7287055E-3,-1.337427E-1,-1.8205753E-2,4.2801797E-1,2.5268905E-2,-2.7047727E-2,3.589635E-2,1.596471E-1],"categories":[],"categories_nodes":[],"categories_segments":[],"categories_sizes":[],"default_left":[0,0,0,0,0,0,0,0,0,0,0,0,0,0,0,0,0,0,0],"id":30,"left_children":[1,3,5,-1,-1,7,9,-1,-1,11,-1,13,-1,15,17,-1,-1,-1,-1],"loss_changes":[4.756748E-1,4.6210057E-1,4.2834115E-1,0E0,0E0,1.1456904E-1,5.720172E-1,0E0,0E0,1.082942E0,0E0,7.283973E-1,0E0,4.9202356E-1,6.073022E-2,0E0,0E0,0E0,0E0],"parents":[2147483647,0,0,1,1,2,2,5,5,6,6,9,9,11,11,13,13,14,14],"right_children":[2,4,6,-1,-1,8,10,-1,-1,12,-1,14,-1,16,18,-1,-1,-1,-1],"split_conditions":[1.3881593E2,-4.3476586E0,3.4889664E1,4.1512795E-2,-1.3277873E-1,1.8879375E2,1.8393756E2,-1.199431E-1,-4.489101E-3,1.6525162E2,1.3188723E-1,1.7599707E2,-1.337427E-1,-8.046266E-1,1.7160213E2,2.5268905E-2,-2.7047727E-2,3.589635E-2,1.596471E-1],"split_indices":[0,3,2,0,0,0,1,0,0,1,0,6,0,3,7,0,0,0,0],"split_type":[0,0,0,0,0,0,0,0,0,0,0,0,0,0,0,0,0,0,0],"sum_hessian":[8.3629456E1,5.7144403E0,7.7915016E1,1.303356E0,4.411084E0,3.8752782E0,7.4039734E1,2.8036952E0,1.071583E0,7.23332E1,1.7065338E0,6.759885E1,4.734353E0,6.472482E1,2.8740227E0,2.6635263E1,3.808956E1,1.2680929E0,1.6059299E0],"tree_param":{"num_deleted":"0","num_feature":"8","num_nodes":"19","size_leaf_vector":"1"}},{"base_weights":[4.185221E-2,2.7427878E-2,3.0838907E-1,1.77387E-1,5.891789E-3,1.3204087E-1,7.361339E-2,-2.2940412E-1,2.7905294E-1,-3.3758667E-1,2.6935842E-2,3.4272492E-2,-2.9713851E-3,-9.84839E-2,6.2578823E-4,3.5016873E-1,-6.3394204E-2,-1.9767608E-2,-1.6163872E-1,1.6303775E-1,-3.525998E-3,-5.139498E-2,4.3017745E-1,-9.2401735E-2,7.192572E-2,-3.2444596E-1,2.8686875E-1,-3.8941586E-1,4.0243153E-2,-6.5376507E-3,1.4546217E-1,-2.265853E-2,-1.2531605E-1,1.4384398E-2,1.7847106E-1,5.340735E-2,-1.4850353E-1,1.1419236E-1,4.7770687E-3],"categories":[],"categories_nodes":[],"categories_segments":[],"categories_sizes":[],"default_left":[0,0,0,0,0,0,0,0,0,0,0,0,0,0,0,0,0,0,0,0,0,0,0,0,0,0,0,0,0,0,0,0,0,0,0,0,0,0,0],"id":31,"left_children":[1,3,5,7,9,-1,11,13,15,17,19,-1,-1,-1,-1,21,-1,23,-1,25,27,-1,29,-1,-1,31,33,35,37,-1,-1,-1,-1,-1,-1,-1,-1,-1,-1],"loss_changes":[4.5723557E-1,3.73606E-1,1.5693027E-1,6.6508406E-1,7.497944E-1,0E0,1.2671966E-2,7.976155E-2,4.9522024E-1,3.7238353E-1,4.0473664E-1,0E0,0E0,0E0,0E0,5.295391E-1,0E0,3.251934E-1,0E0,1.1705687E0,1.3775997E0,0E0,2.5176835E-1,0E0,0E0,6.329292E-2,1.0580858E0,5.859281E-1,6.009645E-1,0E0,0E0,0E0,0E0,0E0,0E0,0E0,0E0,0E0,0E0],"parents":[2147483647,0,0,1,1,2,2,3,3,4,4,6,6,7,7,8,8,9,9,10,10,15,15,17,17,19,19,20,20,22,22,25,25,26,26,27,27,28,28],"right_children":[2,4,6,8,10,-1,12,14,16,18,20,-1,-1,-1,-1,22,-1,24,-1,26,28,-1,30,-1,-1,32,34,36,38,-1,-1,-1,-1,-1,-1,-1,-1,-1,-1],"split_conditions":[7.12097E1,3.7347584E1,4.1865754E0,-4.516787E0,3.9944298E1,1.3204087E-1,1.5889174E2,1.5142613E2,1.7743346E2,1.5453484E2,4.5258633E1,3.4272492E-2,-2.9713851E-3,-9.84839E-2,6.2578823E-4,2.9566746E1,-6.3394204E-2,1.4599117E2,-1.6163872E-1,1.4282681E2,4.8015358E1,-5.139498E-2,1.3478268E2,-9.2401735E-2,7.192572E-2,-2.8754878E0,4.278062E1,1.3892026E2,-2.4514198E0,-6.5376507E-3,1.4546217E-1,-2.265853E-2,-1.2531605E-1,1.4384398E-2,1.7847106E-1,5.340735E-2,-1.4850353E-1,1.1419236E-1,4.7770687E-3],"split_indices":[2,2,3,3,2,0,0,0,7,1,2,0,0,0,0,2,0,1,0,0,2,0,6,0,0,3,2,0,3,0,0,0,0,0,0,0,0,0,0],"split_type":[0,0,0,0,0,0,0,0,0,0,0,0,0,0,0,0,0,0,0,0,0,0,0,0,0,0,0,0,0,0,0,0,0,0,0,0,0,0,0],"sum_hessian":[1.2012888E2,1.15007835E2,5.1210423E0,1.3533719E1,1.0147412E2,2.719982E0,2.40106E0,2.454839E0,1.107888E1,4.989772E0,9.6484344E1,1.367807E0,1.0332531E0,1.42715E0,1.027689E0,9.925354E0,1.1535262E0,2.3601105E0,2.629661E0,1.6849495E1,7.963485E1,1.1684355E0,8.756919E0,1.02967E0,1.3304406E0,3.0849493E0,1.3764545E1,7.3078957E0,7.232696E1,1.0102834E0,7.746635E0,1.3341902E0,1.7507589E0,8.40277E0,5.3617754E0,1.0389562E0,6.2689395E0,3.8458261E0,6.848113E1],"tree_param":{"num_deleted":"0","num_feature":"8","num_nodes":"39","size_leaf_vector":"1"}},{"base_weights":[-5.5654147E-3,2.0775053E-1,-3.4153864E-2,4.805677E-2,1.6625421E-1,-4.302917E-1,-8.5165845E-3,2.7924353E-1,-1.3694675E-1,-1.910586E-2,-1.618765E-1,2.4340482E-1,-4.950252E-2,5.479034E-2,1.4163287E-1,3.374438E-1,-9.518075E-2,-1.4455412E-1,-2.2931328E-2,1.2237335E-1,-1.07154824E-1,3.414877E-2,1.9440341E-1,3.1905392E-1,-6.777681E-2,9.9622674E-2,-1.2241631E-1,1.905628E-1,2.0785855E-2,1.3946906E-1,-2.6113765E-2],"categories":[],"categories_nodes":[],"categories_segments":[],"categories_sizes":[],"default_left":[0,0,0,0,0,0,0,0,0,0,0,0,0,0,0,0,0,0,0,0,0,0,0,0,0,0,0,0,0,0,0],"id":32,"left_children":[1,3,5,7,-1,9,11,13,-1,-1,-1,15,17,19,-1,21,-1,-1,23,-1,-1,25,-1,27,29,-1,-1,-1,-1,-1,-1],"loss_changes":[5.9505546E-1,6.1153257E-1,8.684964E-1,1.1761744E0,0E0,1.7398494E-1,8.553887E-1,2.6789355E-1,0E0,0E0,0E0,7.185661E-1,8.0550593E-1,7.665129E-1,0E0,9.5905805E-1,0E0,0E0,1.0647207E0,0E0,0E0,9.68877E-1,0E0,5.924585E-1,6.6610575E-1,0E0,0E0,0E0,0E0,0E0,0E0],"parents":[2147483647,0,0,1,1,2,2,3,3,5,5,6,6,7,7,11,11,12,12,13,13,15,15,18,18,21,21,23,23,24,24],"right_children":[2,4,6,8,-1,10,12,14,-1,-1,-1,16,18,20,-1,22,-1,-1,24,-1,-1,26,-1,28,30,-1,-1,-1,-1,-1,-1],"split_conditions":[1.3715262E2,1.3821815E2,1.3896701E2,1.3668315E2,1.6625421E-1,4.471073E1,1.4280911E2,1.2900711E2,-1.3694675E-1,-1.910586E-2,-1.618765E-1,1.528255E2,1.389515E2,1.22736046E2,1.4163287E-1,-1.8563426E0,-9.518075E-2,-1.4455412E-1,1.4240259E2,1.2237335E-1,-1.07154824E-1,1.4453075E2,1.9440341E-1,5.331585E1,1.3794116E2,9.9622674E-2,-1.2241631E-1,1.905628E-1,2.0785855E-2,1.3946906E-1,-2.6113765E-2],"split_indices":[0,4,0,5,0,2,0,4,0,0,0,6,1,4,0,3,0,0,1,0,0,6,0,2,5,0,0,0,0,0,0],"split_type":[0,0,0,0,0,0,0,0,0,0,0,0,0,0,0,0,0,0,0,0,0,0,0,0,0,0,0,0,0,0,0],"sum_hessian":[9.541261E1,1.0535306E1,8.4877304E1,7.9906015E0,2.544704E0,4.199795E0,8.067751E1,5.7859707E0,2.2046309E0,1.328017E0,2.8717775E0,1.0597975E1,7.007954E1,3.2674594E0,2.5185115E0,9.416705E0,1.1812699E0,3.0655324E0,6.7014E1,1.7647079E0,1.5027515E0,5.3256855E0,4.091019E0,7.0601077E0,5.9953896E1,3.330716E0,1.99497E0,2.4348633E0,4.625244E0,1.2856916E0,5.8668205E1],"tree_param":{"num_deleted":"0","num_feature":"8","num_nodes":"31","size_leaf_vector":"1"}},{"base_weights":[-4.363618E-2,-2.909944E-1,-2.3564542E-2,3.8367175E-2,-1.2751997E-1,-1.0817361E-1,-1.0058052E-2,-2.8624767E-2,1.2684654E-1,2.1998906E-3,-1.2863433E-1,-2.756302E-2,3.3388296E-1,-1.2609294E-3,-1.2973039E-1,1.7135613E-1,1.6560076E-2],"categories":[],"categories_nodes":[],"categories_segments":[],"categories_sizes":[],"default_left":[0,0,0,0,0,0,0,0,0,0,0,0,0,0,0,0,0],"id":33,"left_children":[1,3,5,-1,-1,-1,7,9,-1,11,-1,13,15,-1,-1,-1,-1],"loss_changes":[3.9834237E-1,3.9341933E-1,3.4493694E-1,0E0,0E0,0E0,6.1210763E-1,8.9545584E-1,0E0,6.8372905E-1,0E0,5.9993815E-1,3.45603E-1,0E0,0E0,0E0,0E0],"parents":[2147483647,0,0,1,1,2,2,6,6,7,7,9,9,11,11,12,12],"right_children":[2,4,6,-1,-1,-1,8,10,-1,12,-1,14,16,-1,-1,-1,-1],"split_conditions":[1.3881593E2,-4.3476586E0,3.320652E1,3.8367175E-2,-1.2751997E-1,-1.0817361E-1,1.8393756E2,1.6900323E2,1.2684654E-1,1.6575351E2,-1.2863433E-1,5.218235E0,1.6871669E2,-1.2609294E-3,-1.2973039E-1,1.7135613E-1,1.6560076E-2],"split_indices":[0,3,2,0,0,0,1,0,0,4,0,3,4,0,0,0,0],"split_type":[0,0,0,0,0,0,0,0,0,0,0,0,0,0,0,0,0],"sum_hessian":[8.061306E1,5.037259E0,7.5575806E1,1.2325326E0,3.8047266E0,1.9219741E0,7.365383E1,7.152012E1,2.133707E0,6.7328224E1,4.1918945E0,6.262555E1,4.7026777E0,6.0164604E1,2.4609432E0,1.9730167E0,2.7296612E0],"tree_param":{"num_deleted":"0","num_feature":"8","num_nodes":"17","size_leaf_vector":"1"}},{"base_weights":[3.1922102E-2,1.9203033E-2,2.744777E-1,4.1417018E-2,-1.0002123E-1,1.23434246E-1,5.795651E-2,9.0414025E-3,2.1052974E-1,2.6186186E-1,-2.0851876E-1,2.9194798E-2,-4.7795675E-3,3.5416245E-2,-2.076593E-1,2.958517E-1,4.063583E-3,-6.907257E-2,1.5981574E-1,-3.335766E-1,2.2451803E-1,5.7851057E-3,2.5190076E-1,-1.5246558E-1,-4.1201573E-2,-1.328817E-2,3.765312E-1,-2.0896743E-1,8.20685E-2,-3.8296008E-1,2.0555593E-2,9.194611E-2,4.211991E-3,1.0363088E-1,-6.1240946E-3,-2.6838493E-2,1.3060859E-1,4.125789E-2,-1.2721327E-1,1.5083507E-1,1.6964521E-2,-1.0782837E-1,1.9829627E-2,-6.0279556E-2,-1.6647863E-1],"categories":[],"categories_nodes":[],"categories_segments":[],"categories_sizes":[],"default_left":[0,0,0,0,0,0,0,0,0,0,0,0,0,0,0,0,0,0,0,0,0,0,0,0,0,0,0,0,0,0,0,0,0,0,0,0,0,0,0,0,0,0,0,0,0],"id":34,"left_children":[1,3,5,7,9,-1,11,13,15,17,19,-1,-1,21,23,25,27,-1,-1,29,31,33,35,-1,37,-1,39,41,-1,43,-1,-1,-1,-1,-1,-1,-1,-1,-1,-1,-1,-1,-1,-1,-1],"loss_changes":[3.5571206E-1,3.0144238E-1,1.4682212E-1,5.2004683E-1,7.583318E-1,0E0,1.1420294E-2,4.7063723E-1,2.678514E-1,7.3278356E-1,8.517859E-1,0E0,0E0,4.675659E-1,4.263763E-1,3.1287324E-1,3.71778E-1,0E0,0E0,2.552588E-1,6.146951E-2,5.884549E-1,5.887763E-1,0E0,5.265009E-1,0E0,3.282559E-1,1.7388983E-1,0E0,2.147919E-1,0E0,0E0,0E0,0E0,0E0,0E0,0E0,0E0,0E0,0E0,0E0,0E0,0E0,0E0,0E0],"parents":[2147483647,0,0,1,1,2,2,3,3,4,4,6,6,7,7,8,8,9,9,10,10,13,13,14,14,15,15,16,16,19,19,20,20,21,21,22,22,24,24,26,26,27,27,29,29],"right_children":[2,4,6,8,10,-1,12,14,16,18,20,-1,-1,22,24,26,28,-1,-1,30,32,34,36,-1,38,-1,40,42,-1,44,-1,-1,-1,-1,-1,-1,-1,-1,-1,-1,-1,-1,-1,-1,-1],"split_conditions":[7.12097E1,3.2201684E0,4.1865754E0,6.2696537E1,1.5095615E2,1.23434246E-1,1.5889174E2,6.0423885E1,6.642106E1,1.5036215E2,6.969719E1,2.9194798E-2,-4.7795675E-3,5.6713593E1,6.0936817E1,1.4251149E2,1.6860983E2,-6.907257E-2,1.5981574E-1,5.406191E0,1.5477208E2,1.389515E2,1.486157E2,-1.5246558E-1,6.2441982E1,-1.328817E-2,1.6331111E2,6.759496E1,8.20685E-2,4.1865754E0,2.0555593E-2,9.194611E-2,4.211991E-3,1.0363088E-1,-6.1240946E-3,-2.6838493E-2,1.3060859E-1,4.125789E-2,-1.2721327E-1,1.5083507E-1,1.6964521E-2,-1.0782837E-1,1.9829627E-2,-6.0279556E-2,-1.6647863E-1],"split_indices":[2,3,3,2,5,0,0,2,2,5,2,0,0,2,2,0,4,0,0,3,0,1,0,0,2,0,0,2,0,3,0,0,0,0,0,0,0,0,0,0,0,0,0,0,0],"split_type":[0,0,0,0,0,0,0,0,0,0,0,0,0,0,0,0,0,0,0,0,0,0,0,0,0,0,0,0,0,0,0,0,0,0,0,0,0,0,0,0,0,0,0,0,0],"sum_hessian":[1.1600919E2,1.11254425E2,4.754763E0,9.433116E1,1.6923265E1,2.3609674E0,2.3937957E0,8.005801E1,1.427316E1,3.5774605E0,1.3345804E1,1.3549583E0,1.0388374E0,7.211713E1,7.940876E0,9.793198E0,4.479962E0,1.3232611E0,2.2541995E0,1.0533491E1,2.8123138E0,6.4337685E1,7.779444E0,2.0985518E0,5.8423243E0,1.9639889E0,7.8292093E0,2.627555E0,1.8524067E0,9.423703E0,1.1097875E0,1.6957649E0,1.116549E0,3.7346728E0,6.0603012E1,2.8985462E0,4.880898E0,4.41976E0,1.4225639E0,5.204457E0,2.6247525E0,1.5002346E0,1.1273204E0,5.631355E0,3.7923481E0],"tree_param":{"num_deleted":"0","num_feature":"8","num_nodes":"45","size_leaf_vector":"1"}},{"base_weights":[-1.8713947E-3,1.1683267E-2,-1.1111995E-1,-3.5091217E-3,1.0588411E-1,1.9470555E-1,-3.0664915E-2,4.1720174E-2,1.5404569E-1,-4.049429E-1,-5.3663747E-3,2.6685387E-1,-1.2996286E-1,-2.0935327E-2,-1.5148759E-1,2.160209E-1,-4.336327E-2,1.5222133E-2,1.3331057E-1,9.157671E-2,-9.146704E-2,-1.376547E-1,-5.0247107E-3],"categories":[],"categories_nodes":[],"categories_segments":[],"categories_sizes":[],"default_left":[0,0,0,0,0,0,0,0,0,0,0,0,0,0,0,0,0,0,0,0,0,0,0],"id":35,"left_children":[1,3,-1,5,-1,7,9,11,-1,13,15,17,-1,-1,-1,19,21,-1,-1,-1,-1,-1,-1],"loss_changes":[4.6850488E-1,4.7094434E-1,0E0,4.781661E-1,0E0,5.0071466E-1,7.3656094E-1,1.0055145E0,0E0,1.2989324E-1,6.3263506E-1,2.1780545E-1,0E0,0E0,0E0,6.0535806E-1,7.008072E-1,0E0,0E0,0E0,0E0,0E0,0E0],"parents":[2147483647,0,0,1,1,3,3,5,5,6,6,7,7,9,9,10,10,11,11,15,15,16,16],"right_children":[2,4,-1,6,-1,8,10,12,-1,14,16,18,-1,-1,-1,20,22,-1,-1,-1,-1,-1,-1],"split_conditions":[1.9116443E2,1.8151831E2,-1.1111995E-1,1.3715262E2,1.0588411E-1,1.3821815E2,1.3896701E2,